{"learner":{"attributes":{"best_iteration":"116","best_score":"0.6776984708693023"},"feature_names":[],"feature_types":[],"gradient_booster":{"model":{"cats":{"enc":[],"feature_segments":[],"sorted_idx":[]},"gbtree_model_param":{"num_parallel_tree":"1","num_trees":"147"},"iteration_indptr":[0,1,2,3,4,5,6,7,8,9,10,11,12,13,14,15,16,17,18,19,20,21,22,23,24,25,26,27,28,29,30,31,32,33,34,35,36,37,38,39,40,41,42,43,44,45,46,47,48,49,50,51,52,53,54,55,56,57,58,59,60,61,62,63,64,65,66,67,68,69,70,71,72,73,74,75,76,77,78,79,80,81,82,83,84,85,86,87,88,89,90,91,92,93,94,95,96,97,98,99,100,101,102,103,104,105,106,107,108,109,110,111,112,113,114,115,116,117,118,119,120,121,122,123,124,125,126,127,128,129,130,131,132,133,134,135,136,137,138,139,140,141,142,143,144,145,146,147],"tree_info":[0,0,0,0,0,0,0,0,0,0,0,0,0,0,0,0,0,0,0,0,0,0,0,0,0,0,0,0,0,0,0,0,0,0,0,0,0,0,0,0,0,0,0,0,0,0,0,0,0,0,0,0,0,0,0,0,0,0,0,0,0,0,0,0,0,0,0,0,0,0,0,0,0,0,0,0,0,0,0,0,0,0,0,0,0,0,0,0,0,0,0,0,0,0,0,0,0,0,0,0,0,0,0,0,0,0,0,0,0,0,0,0,0,0,0,0,0,0,0,0,0,0,0,0,0,0,0,0,0,0,0,0,0,0,0,0,0,0,0,0,0,0,0,0,0,0,0],"trees":[{"base_weights":[-1.0284592E-2,1.797779E-1,-5.139736E-1,-1.591028E-1,3.9351064E-1,-3.6303914E-1,-9.131692E-1,6.511945E-2,-3.8795096E-1,5.332593E-1,9.821629E-2,-7.6628494E-1,-2.4547352E-1,-6.5952176E-1,-1.1142138E0,1.5100849E-1,-1.5540111E-1,-2.0914356E-1,-5.926653E-1,6.463385E-1,3.1720784E-1,-1.255533E-1,2.5562522E-1,-2.5111496E-1,-9.014188E-1,3.1083914E-2,-4.5566514E-1,-8.643543E-1,-3.7043336E-1,-1.037149E0,-1.5773222E0,7.159985E-2,4.6561676E-1,3.820548E-1,-2.340133E-1,-1.07671075E-1,-4.7747067E-1,-7.4342126E-1,-4.566105E-1,5.086365E-1,7.740335E-1,1.6224281E-1,5.1481384E-1,6.579394E-2,-3.4377548E-1,3.9249983E-1,5.5081006E-2,1.10319674E-1,-4.579359E-1,-8.057928E-1,-1.1459609E0,2.428189E-1,-7.2464146E-2,-5.902535E-1,-7.440469E-2,-5.4614896E-1,-1.2468233E0,-1.5310186E-1,-6.322229E-1,-7.6185244E-1,-1.1918467E0,-3.302954E-1,-1.6766346E0,9.256503E-3,-7.862582E-3,3.34952E-2,1.7203284E-2,-1.51016405E-2,2.2411032E-2,-7.289847E-3,-3.019905E-2,5.4227274E-2,-6.1548497E-3,-3.7304513E-2,-1.5952198E-2,-3.2391004E-2,-4.604187E-2,-1.8806126E-2,-4.2806022E-2,3.5631027E-2,1.5072504E-2,3.3226926E-2,4.6005037E-2,1.6025404E-2,-7.171902E-4,1.3005013E-2,3.0908627E-2,8.365101E-3,-1.1456593E-2,1.7134141E-2,-1.8756513E-2,2.69698E-2,1.4844203E-2,1.1752508E-2,-1.1745782E-2,2.9651323E-2,-5.153961E-3,-2.4400588E-2,3.8584717E-2,-3.4962498E-2,-4.9326748E-2,-1.6639939E-2,-6.0857054E-2,1.6442463E-3,2.0154035E-2,3.944227E-3,-1.0751082E-2,-3.4585364E-2,-1.6498294E-2,3.1299707E-2,-1.0137591E-2,-3.4851894E-2,-7.6271086E-3,-5.693124E-2,-7.84887E-2,-2.0657904E-3,-4.3499332E-2,-1.1989175E-2,-4.9213633E-2,-4.911236E-2,-1.9997325E-2,-6.378305E-2,-3.7637252E-2,4.0460143E-2,-6.545349E-2,-7.233632E-2,-9.440845E-2],"categories":[],"categories_nodes":[],"categories_segments":[],"categories_sizes":[],"default_left":[0,0,0,0,0,0,0,0,0,0,0,0,0,0,0,0,0,0,0,0,0,0,0,0,0,0,0,0,0,0,0,0,0,0,0,0,0,0,0,0,0,0,0,0,0,0,0,0,0,0,0,0,0,0,0,0,0,0,0,0,0,0,0,0,0,0,0,0,0,0,0,0,0,0,0,0,0,0,0,0,0,0,0,0,0,0,0,0,0,0,0,0,0,0,0,0,0,0,0,0,0,0,0,0,0,0,0,0,0,0,0,0,0,0,0,0,0,0,0,0,0,0,0,0,0,0,0],"id":0,"left_children":[1,3,5,7,9,11,13,15,17,19,21,23,25,27,29,31,33,35,37,39,41,43,45,47,49,51,53,55,57,59,61,63,65,67,69,71,73,75,77,79,81,83,85,87,89,91,93,95,97,99,101,103,105,107,109,111,113,115,117,119,121,123,125,-1,-1,-1,-1,-1,-1,-1,-1,-1,-1,-1,-1,-1,-1,-1,-1,-1,-1,-1,-1,-1,-1,-1,-1,-1,-1,-1,-1,-1,-1,-1,-1,-1,-1,-1,-1,-1,-1,-1,-1,-1,-1,-1,-1,-1,-1,-1,-1,-1,-1,-1,-1,-1,-1,-1,-1,-1,-1,-1,-1,-1,-1,-1,-1],"loss_changes":[3.0231887E3,1.6607332E3,5.2095044E2,4.5509326E2,5.801809E2,2.9751532E2,1.2027588E2,8.488319E1,1.6053723E2,2.329541E2,1.5916632E2,9.842523E1,2.827333E2,6.1955505E1,4.5556885E1,8.053564E1,5.3172146E1,6.3780045E1,4.1621582E1,1.09747314E2,1.00382965E2,7.795381E1,7.278868E1,2.2166227E1,2.5318909E1,4.6084915E1,1.4175531E2,7.414221E1,2.4817272E1,4.749695E1,2.2572083E1,6.696354E1,1.5904205E1,7.409069E0,3.570455E1,3.1441538E1,2.712558E1,1.5836548E1,3.433893E1,1.27279236E2,5.133667E1,5.1436058E1,3.779126E1,2.9833199E1,1.8899338E1,2.1980759E1,5.6272972E1,1.1235963E1,7.342903E0,1.4910278E1,1.7717468E1,2.3211807E1,3.047879E1,5.3702454E1,6.504263E1,1.9930511E1,7.9415894E0,1.924384E1,2.7162346E1,3.244368E1,2.5755615E1,1.781079E1,5.6679077E0,0E0,0E0,0E0,0E0,0E0,0E0,0E0,0E0,0E0,0E0,0E0,0E0,0E0,0E0,0E0,0E0,0E0,0E0,0E0,0E0,0E0,0E0,0E0,0E0,0E0,0E0,0E0,0E0,0E0,0E0,0E0,0E0,0E0,0E0,0E0,0E0,0E0,0E0,0E0,0E0,0E0,0E0,0E0,0E0,0E0,0E0,0E0,0E0,0E0,0E0,0E0,0E0,0E0,0E0,0E0,0E0,0E0,0E0,0E0,0E0,0E0,0E0,0E0,0E0],"parents":[2147483647,0,0,1,1,2,2,3,3,4,4,5,5,6,6,7,7,8,8,9,9,10,10,11,11,12,12,13,13,14,14,15,15,16,16,17,17,18,18,19,19,20,20,21,21,22,22,23,23,24,24,25,25,26,26,27,27,28,28,29,29,30,30,31,31,32,32,33,33,34,34,35,35,36,36,37,37,38,38,39,39,40,40,41,41,42,42,43,43,44,44,45,45,46,46,47,47,48,48,49,49,50,50,51,51,52,52,53,53,54,54,55,55,56,56,57,57,58,58,59,59,60,60,61,61,62,62],"right_children":[2,4,6,8,10,12,14,16,18,20,22,24,26,28,30,32,34,36,38,40,42,44,46,48,50,52,54,56,58,60,62,64,66,68,70,72,74,76,78,80,82,84,86,88,90,92,94,96,98,100,102,104,106,108,110,112,114,116,118,120,122,124,126,-1,-1,-1,-1,-1,-1,-1,-1,-1,-1,-1,-1,-1,-1,-1,-1,-1,-1,-1,-1,-1,-1,-1,-1,-1,-1,-1,-1,-1,-1,-1,-1,-1,-1,-1,-1,-1,-1,-1,-1,-1,-1,-1,-1,-1,-1,-1,-1,-1,-1,-1,-1,-1,-1,-1,-1,-1,-1,-1,-1,-1,-1,-1,-1],"split_conditions":[7.05E2,4.0086E0,7.4E2,4.6946054E0,4.942008E0,3.961421E0,1E0,6.85E2,1E0,6.85E2,4.304275E0,4.4871383E0,4.838849E0,4.20412E0,7.95E2,3.961421E0,4.3424225E0,6.85E2,3.8573325E0,4.1910315E0,1E0,6.8E2,6.85E2,4.3424225E0,4.8463373E0,3.33E-1,4.462398E0,4.70757E0,4.9542427E0,2.19E-1,4.60206E0,4.60206E0,4.544068E0,3.3802114E0,7E2,1.004E-2,3.80618E0,4.913814E0,4.4E1,4.7160034E0,1E0,4.79588E0,4.130334E0,4.1E1,1.68E-1,5.041393E0,4E1,7.1E2,9.54E-1,4.17E-1,1.14E-1,4.130334E0,7.15E2,1E0,2.9E-1,4.0086E0,7.8E2,7.9E2,2.04E-1,4.243038E0,4.462398E0,4E1,9.9E-2,9.256503E-3,-7.862582E-3,3.34952E-2,1.7203284E-2,-1.51016405E-2,2.2411032E-2,-7.289847E-3,-3.019905E-2,5.4227274E-2,-6.1548497E-3,-3.7304513E-2,-1.5952198E-2,-3.2391004E-2,-4.604187E-2,-1.8806126E-2,-4.2806022E-2,3.5631027E-2,1.5072504E-2,3.3226926E-2,4.6005037E-2,1.6025404E-2,-7.171902E-4,1.3005013E-2,3.0908627E-2,8.365101E-3,-1.1456593E-2,1.7134141E-2,-1.8756513E-2,2.69698E-2,1.4844203E-2,1.1752508E-2,-1.1745782E-2,2.9651323E-2,-5.153961E-3,-2.4400588E-2,3.8584717E-2,-3.4962498E-2,-4.9326748E-2,-1.6639939E-2,-6.0857054E-2,1.6442463E-3,2.0154035E-2,3.944227E-3,-1.0751082E-2,-3.4585364E-2,-1.6498294E-2,3.1299707E-2,-1.0137591E-2,-3.4851894E-2,-7.6271086E-3,-5.693124E-2,-7.84887E-2,-2.0657904E-3,-4.3499332E-2,-1.1989175E-2,-4.9213633E-2,-4.911236E-2,-1.9997325E-2,-6.378305E-2,-3.7637252E-2,4.0460143E-2,-6.545349E-2,-7.233632E-2,-9.440845E-2],"split_indices":[0,8,0,6,6,8,9,0,9,0,8,6,6,8,0,8,6,0,8,8,11,0,0,6,6,2,8,6,6,2,6,6,6,8,0,2,8,6,5,6,11,6,8,5,2,6,5,0,2,2,2,8,0,11,2,8,0,0,2,8,8,5,2,0,0,0,0,0,0,0,0,0,0,0,0,0,0,0,0,0,0,0,0,0,0,0,0,0,0,0,0,0,0,0,0,0,0,0,0,0,0,0,0,0,0,0,0,0,0,0,0,0,0,0,0,0,0,0,0,0,0,0,0,0,0,0,0],"split_type":[0,0,0,0,0,0,0,0,0,0,0,0,0,0,0,0,0,0,0,0,0,0,0,0,0,0,0,0,0,0,0,0,0,0,0,0,0,0,0,0,0,0,0,0,0,0,0,0,0,0,0,0,0,0,0,0,0,0,0,0,0,0,0,0,0,0,0,0,0,0,0,0,0,0,0,0,0,0,0,0,0,0,0,0,0,0,0,0,0,0,0,0,0,0,0,0,0,0,0,0,0,0,0,0,0,0,0,0,0,0,0,0,0,0,0,0,0,0,0,0,0,0,0,0,0,0,0],"sum_hessian":[3.1577613E4,2.292697E4,8.650643E3,8.867499E3,1.4059473E4,6.278625E3,2.372017E3,4.47938E3,4.3881187E3,9.542608E3,4.516864E3,1.416063E3,4.862562E3,1.0506929E3,1.3213241E3,3.2240012E3,1.2553787E3,2.3433474E3,2.0447712E3,6.262752E3,3.2798567E3,1.8653375E3,2.6515264E3,2.948534E2,1.1212096E3,2.100156E3,2.762406E3,6.137982E2,4.3689462E2,1.1355923E3,1.8573186E2,2.5752288E3,6.4877246E2,1.5969766E2,1.095681E3,1.7013529E3,6.419945E2,9.678632E2,1.076908E3,3.0157024E3,3.2470496E3,1.8392866E3,1.4405702E3,9.942404E2,8.7109717E2,1.5753606E3,1.0761656E3,1.07483955E2,1.8736943E2,8.0910974E2,3.1209988E2,6.893102E2,1.410846E3,2.0412712E3,7.211349E2,3.3637225E2,2.77426E2,2.3958313E2,1.9731148E2,4.106802E2,7.2491205E2,1.4019555E1,1.717123E2,1.7214375E3,8.537913E2,2.4033595E2,4.0843652E2,1.3769555E1,1.459281E2,8.8585E2,2.0983102E2,2.0847073E1,1.6805059E3,2.3679262E2,4.0520187E2,6.319735E2,3.358897E2,8.9794354E2,1.789644E2,1.5183656E3,1.4973369E3,1.8590311E3,1.3880184E3,9.695316E2,8.69755E2,4.1684015E2,1.02373E3,7.399841E2,2.5425632E2,3.7616627E1,8.334805E2,6.192913E2,9.5606934E2,6.641747E2,4.1199097E2,3.2405033E1,7.5078926E1,1.8348466E2,3.8847775E0,5.121055E2,2.970042E2,2.5577517E1,2.8652237E2,2.989316E2,3.9037857E2,6.8453925E2,7.2630664E2,1.4675846E3,5.736865E2,1.1108103E2,6.1005383E2,2.4260059E2,9.377166E1,2.1119485E2,6.623115E1,2.081788E2,3.1404333E1,9.409848E1,1.03213E2,2.541767E2,1.5650351E2,6.071215E2,1.1779051E2,6.5579624E0,7.4615927E0,8.603911E1,8.567319E1],"tree_param":{"num_deleted":"0","num_feature":"12","num_nodes":"127","size_leaf_vector":"1"}},{"base_weights":[6.841886E-4,1.7910591E-1,-4.7235835E-1,-1.4084597E-1,3.797668E-1,-3.2622436E-1,-8.661822E-1,4.3388882E-1,-2.1012251E-1,4.965402E-1,1.7136586E-1,-6.987268E-1,-2.174779E-1,-7.507528E-1,-1.2299314E0,7.0849866E-1,2.1983887E-1,-8.457795E-2,-4.186832E-1,6.21654E-1,3.574372E-1,6.740147E-2,3.443226E-1,-2.782856E-1,-8.043598E-1,-3.0744126E-2,-3.6520153E-1,-4.6679145E-1,-9.018028E-1,-1.2533212E0,2.642889E-1,4.446488E-1,8.8048416E-1,1.0958022E-2,4.7915542E-1,-5.7614497E-3,-4.227911E-1,-3.1633404E-1,-6.4238906E-1,4.9061257E-1,7.249735E-1,4.5493406E-1,2.0568632E-1,1.940677E-1,-1.02720395E-1,6.5641105E-1,2.6712352E-1,-1.1107928E-1,-6.940187E-1,-9.424381E-1,-6.245824E-1,3.5572714E-1,-8.355408E-2,-9.020647E-2,-4.2057848E-1,-6.9976556E-1,-2.0150428E-1,-1.1651956E0,-7.422667E-1,-9.948549E-1,-1.4023417E0,-3.884267E-2,5.6987446E-2,-2.305014E-2,2.613251E-2,5.1088452E-2,2.1123832E-2,-3.4853455E-2,8.426921E-3,4.9825776E-3,3.6288682E-2,-9.854017E-3,6.2488713E-3,-2.5744392E-2,-6.2352214E-3,-9.773856E-3,-2.450786E-2,-3.3790033E-2,3.1742815E-2,1.3789684E-2,2.7689675E-2,4.2171195E-2,3.193943E-2,1.8131707E-2,3.0715076E-2,-2.340637E-3,1.6476963E-2,2.457229E-2,6.4727045E-3,-4.508894E-3,-4.6813894E-2,3.9551325E-2,2.2515662E-2,5.3985463E-3,1.9899292E-2,-5.383195E-4,-3.5986602E-2,-1.996184E-2,-5.8429386E-2,-4.768938E-2,3.3101745E-2,-2.2384917E-2,-3.9484337E-2,5.4332325E-3,3.2465737E-2,-2.0665803E-3,-1.693812E-2,1.9656075E-3,-2.298309E-2,-3.2812934E-2,-1.7963758E-2,-3.6099136E-2,5.626744E-2,-2.8743825E-3,-3.858846E-2,-2.8420363E-2,-6.1336767E-2,-1.9844564E-2,-4.68168E-2,-3.528989E-2,-6.709754E-2,-2.1361317E-2,-7.345063E-2],"categories":[],"categories_nodes":[],"categories_segments":[],"categories_sizes":[],"default_left":[0,0,0,0,0,0,0,0,0,0,0,0,0,0,0,0,0,0,0,0,0,0,0,0,0,0,0,0,0,0,0,0,0,0,0,0,0,0,0,0,0,0,0,0,0,0,0,0,0,0,0,0,0,0,0,0,0,0,0,0,0,0,0,0,0,0,0,0,0,0,0,0,0,0,0,0,0,0,0,0,0,0,0,0,0,0,0,0,0,0,0,0,0,0,0,0,0,0,0,0,0,0,0,0,0,0,0,0,0,0,0,0,0,0,0,0,0,0,0,0,0,0,0],"id":1,"left_children":[1,3,5,7,9,11,13,15,17,19,21,23,25,27,29,31,33,35,37,39,41,43,45,47,49,51,53,55,57,59,61,63,65,67,69,71,73,75,77,79,81,83,85,87,89,91,93,95,97,99,101,103,105,107,109,111,113,115,117,119,121,-1,-1,-1,-1,-1,-1,-1,-1,-1,-1,-1,-1,-1,-1,-1,-1,-1,-1,-1,-1,-1,-1,-1,-1,-1,-1,-1,-1,-1,-1,-1,-1,-1,-1,-1,-1,-1,-1,-1,-1,-1,-1,-1,-1,-1,-1,-1,-1,-1,-1,-1,-1,-1,-1,-1,-1,-1,-1,-1,-1,-1,-1],"loss_changes":[2.6843179E3,1.4827183E3,5.01016E2,3.5452307E2,3.4531116E2,2.5726617E2,9.8032715E1,5.6149765E1,2.0799188E2,1.5807495E2,9.1652374E1,6.3530334E1,1.3571242E2,7.64267E1,2.0118347E1,1.862851E1,2.9231318E1,1.322356E2,6.8145386E1,6.445972E1,6.366455E1,6.866407E1,4.59346E1,2.0065783E1,2.7877075E1,4.4405186E1,4.179361E1,3.843695E1,4.8234253E1,2.0082275E1,9.591583E0,1.206776E1,1.5922028E1,3.358588E1,2.2463116E1,1.00681725E2,2.5674072E1,4.2971786E1,4.0375946E1,2.8533722E1,2.6765747E1,3.8358704E1,5.2788147E1,3.5028633E1,1.4136434E1,1.0154434E1,3.1947258E1,1.2682392E1,1.1134224E1,1.2406311E1,1.4281097E1,1.8902771E1,2.0606861E1,2.2111809E1,3.2795654E1,1.427182E1,2.4040257E1,1.5425659E1,4.85878E1,1.9857773E1,2.2207703E1,0E0,0E0,0E0,0E0,0E0,0E0,0E0,0E0,0E0,0E0,0E0,0E0,0E0,0E0,0E0,0E0,0E0,0E0,0E0,0E0,0E0,0E0,0E0,0E0,0E0,0E0,0E0,0E0,0E0,0E0,0E0,0E0,0E0,0E0,0E0,0E0,0E0,0E0,0E0,0E0,0E0,0E0,0E0,0E0,0E0,0E0,0E0,0E0,0E0,0E0,0E0,0E0,0E0,0E0,0E0,0E0,0E0,0E0,0E0,0E0,0E0,0E0],"parents":[2147483647,0,0,1,1,2,2,3,3,4,4,5,5,6,6,7,7,8,8,9,9,10,10,11,11,12,12,13,13,14,14,15,15,16,16,17,17,18,18,19,19,20,20,21,21,22,22,23,23,24,24,25,25,26,26,27,27,28,28,29,29,30,30,31,31,32,32,33,33,34,34,35,35,36,36,37,37,38,38,39,39,40,40,41,41,42,42,43,43,44,44,45,45,46,46,47,47,48,48,49,49,50,50,51,51,52,52,53,53,54,54,55,55,56,56,57,57,58,58,59,59,60,60],"right_children":[2,4,6,8,10,12,14,16,18,20,22,24,26,28,30,32,34,36,38,40,42,44,46,48,50,52,54,56,58,60,62,64,66,68,70,72,74,76,78,80,82,84,86,88,90,92,94,96,98,100,102,104,106,108,110,112,114,116,118,120,122,-1,-1,-1,-1,-1,-1,-1,-1,-1,-1,-1,-1,-1,-1,-1,-1,-1,-1,-1,-1,-1,-1,-1,-1,-1,-1,-1,-1,-1,-1,-1,-1,-1,-1,-1,-1,-1,-1,-1,-1,-1,-1,-1,-1,-1,-1,-1,-1,-1,-1,-1,-1,-1,-1,-1,-1,-1,-1,-1,-1,-1,-1],"split_conditions":[7.05E2,4.0086E0,7.4E2,5E-1,6.85E2,3.961421E0,7.8E2,3.6E1,1E0,1E0,1E0,1E0,1E0,2E-1,6.6E1,3.7032914E0,1E0,6.9E2,3.9E1,4.1910315E0,3.8E1,3.8E1,3.48E-1,5.09E-1,1E0,1.94E-1,2E0,4.120574E0,4.153815E0,9E-2,2.04E-1,2.19E-1,1E0,3E-1,3.7263196E0,9E0,1.4E1,6.8E2,6E0,8E0,6.7E2,4.304275E0,1.1E1,2E0,9.68E-1,3.5E1,4.2148438E0,1.6E1,3.8E1,9.9E-1,3.36E-1,4.253459E0,7.3E2,7.25E2,4.130334E0,6.3E1,4.2E1,5E-1,1E0,8.05E2,3.2E1,-3.884267E-2,5.6987446E-2,-2.305014E-2,2.613251E-2,5.1088452E-2,2.1123832E-2,-3.4853455E-2,8.426921E-3,4.9825776E-3,3.6288682E-2,-9.854017E-3,6.2488713E-3,-2.5744392E-2,-6.2352214E-3,-9.773856E-3,-2.450786E-2,-3.3790033E-2,3.1742815E-2,1.3789684E-2,2.7689675E-2,4.2171195E-2,3.193943E-2,1.8131707E-2,3.0715076E-2,-2.340637E-3,1.6476963E-2,2.457229E-2,6.4727045E-3,-4.508894E-3,-4.6813894E-2,3.9551325E-2,2.2515662E-2,5.3985463E-3,1.9899292E-2,-5.383195E-4,-3.5986602E-2,-1.996184E-2,-5.8429386E-2,-4.768938E-2,3.3101745E-2,-2.2384917E-2,-3.9484337E-2,5.4332325E-3,3.2465737E-2,-2.0665803E-3,-1.693812E-2,1.9656075E-3,-2.298309E-2,-3.2812934E-2,-1.7963758E-2,-3.6099136E-2,5.626744E-2,-2.8743825E-3,-3.858846E-2,-2.8420363E-2,-6.1336767E-2,-1.9844564E-2,-4.68168E-2,-3.528989E-2,-6.709754E-2,-2.1361317E-2,-7.345063E-2],"split_indices":[0,8,0,7,0,8,0,5,9,9,11,7,9,2,5,8,11,0,5,8,5,5,2,2,11,2,7,8,8,2,2,2,9,2,8,4,4,0,3,4,0,8,4,7,2,5,8,4,5,2,2,8,0,0,8,5,5,7,9,0,5,0,0,0,0,0,0,0,0,0,0,0,0,0,0,0,0,0,0,0,0,0,0,0,0,0,0,0,0,0,0,0,0,0,0,0,0,0,0,0,0,0,0,0,0,0,0,0,0,0,0,0,0,0,0,0,0,0,0,0,0,0,0],"split_type":[0,0,0,0,0,0,0,0,0,0,0,0,0,0,0,0,0,0,0,0,0,0,0,0,0,0,0,0,0,0,0,0,0,0,0,0,0,0,0,0,0,0,0,0,0,0,0,0,0,0,0,0,0,0,0,0,0,0,0,0,0,0,0,0,0,0,0,0,0,0,0,0,0,0,0,0,0,0,0,0,0,0,0,0,0,0,0,0,0,0,0,0,0,0,0,0,0,0,0,0,0,0,0,0,0,0,0,0,0,0,0,0,0,0,0,0,0,0,0,0,0,0,0],"sum_hessian":[3.1802314E4,2.3092812E4,8.709503E3,8.900826E3,1.4191985E4,6.3537E3,2.355803E3,9.568992E2,7.9439272E3,9.094613E3,5.097372E3,1.434502E3,4.919198E3,1.790639E3,5.651639E2,4.181432E2,5.38756E2,4.9597666E3,2.984161E3,4.7862417E3,4.308372E3,3.1845354E3,1.9128364E3,2.8877045E2,1.1457314E3,2.1732522E3,2.745946E3,6.231879E2,1.167451E3,5.566122E2,8.551696E0,1.6641884E2,2.5172437E2,2.9897348E2,2.3978247E2,4.0232205E3,9.36546E2,2.0490845E3,9.3507623E2,2.1125796E3,2.6736619E3,2.6218735E3,1.6864985E3,1.8253264E3,1.359209E3,3.778441E2,1.5349923E3,2.0684525E2,8.19252E1,6.4561975E2,5.001117E2,2.6057663E2,1.9126755E3,4.607162E2,2.28523E3,3.3092938E2,2.9225854E2,4.3800482E2,7.294462E2,2.0636383E2,3.5024835E2,3.9576676E0,4.5940285E0,1.2807262E1,1.5361157E2,1.9143892E2,6.028545E1,5.3803684E1,2.451698E2,9.499902E1,1.4478345E2,1.6330144E3,2.390206E3,7.149332E2,2.2161275E2,1.2099482E3,8.391363E2,9.1169794E2,2.3378325E1,4.8134457E2,1.631235E3,1.122349E3,1.551313E3,1.662366E3,9.595075E2,5.552111E2,1.1312875E3,3.2463202E2,1.5006945E3,1.340152E3,1.9057049E1,2.2684149E2,1.510026E2,6.9345215E2,8.4154016E2,1.7845201E2,2.8393232E1,5.167078E1,3.025442E1,6.414877E2,4.1320977E0,2.4323462E2,2.5687708E2,1.4224417E2,1.1833247E2,1.6421543E3,2.7052124E2,3.4178976E2,1.18926414E2,4.6971368E2,1.8155162E3,3.2754657E2,3.3828118E0,2.3421094E2,5.8047615E1,4.1901077E1,3.9610376E2,2.6351926E2,4.65927E2,1.1425068E2,9.211315E1,2.2888832E1,3.273595E2],"tree_param":{"num_deleted":"0","num_feature":"12","num_nodes":"123","size_leaf_vector":"1"}},{"base_weights":[-3.2540242E-4,1.7440121E-1,-4.6872476E-1,-1.331728E-1,3.670023E-1,-6.5251887E-1,-1.3844846E-1,-4.4824663E-1,3.9687093E-2,1.3524769E-1,6.112581E-1,-5.4436994E-1,-1.027098E0,-5.10772E-1,-2.0790728E-2,-1.8835439E-1,-5.727873E-1,4.832531E-1,-1.8607352E-2,3.5871488E-1,1.4935442E-2,4.8604622E-1,8.457598E-1,-4.06735E-1,-7.890174E-1,-1.4045852E-1,-1.0690376E0,-2.222647E-1,-8.0513924E-1,7.4413195E-2,-3.8680217E-1,1.10214174E-1,-3.1821513E-1,-8.4143686E-1,-4.8294657E-1,7.518356E-1,2.1956445E-1,7.897125E-2,-2.4399161E-1,4.6902403E-1,1.2700537E-1,-1.4438975E-1,1.9130528E-1,6.668124E-1,2.9148078E-1,9.4550455E-1,6.725035E-1,-7.8481543E-1,-2.357733E-1,-9.274949E-1,-3.9906004E-1,3.8622585E-1,-6.615309E-1,-1.223297E0,-7.4204993E-1,-5.901443E-1,-1.3763498E-2,-5.174923E-1,-1.0614523E0,-6.01591E-2,3.0839503E-1,2.502437E-1,-5.3563344E-1,1.7751617E-2,-1.4654197E-2,-2.4163818E-2,-3.8968201E-3,-4.6908822E-2,-4.972176E-3,-1.9132389E-2,-3.741519E-2,1.9437632E-2,5.167933E-2,1.4810684E-3,2.8388707E-2,5.0755945E-5,1.8894378E-2,-8.777606E-3,-3.5419475E-2,1.7229931E-2,3.1890776E-2,1.5949181E-3,2.0702055E-2,1.5557692E-3,-1.4081733E-2,1.4165652E-2,-5.7181367E-3,3.6254745E-2,1.9895837E-2,1.7713174E-2,-4.341735E-3,5.1163055E-2,3.9454512E-2,3.6077034E-2,3.6395718E-3,7.360051E-3,-4.4637997E-2,7.7549294E-3,-2.1060335E-2,-4.9273755E-2,-2.9786974E-2,1.9370934E-2,-2.6453558E-2,-7.2513605E-3,4.9000025E-2,-8.218905E-2,-1.6792884E-2,-4.0785145E-2,-6.578762E-2,1.9847519E-4,-4.4804905E-2,-9.17518E-3,-3.897768E-2,7.145822E-2,-3.3095211E-3,-9.877958E-3,-3.6981627E-2,-5.7227463E-2,-7.9043873E-4,5.1549304E-2,-4.113208E-3,2.5544692E-2,7.845848E-3,2.9455855E-2,-2.3214318E-2,4.262155E-2,-3.1227587E-2],"categories":[],"categories_nodes":[],"categories_segments":[],"categories_sizes":[],"default_left":[0,0,0,0,0,0,0,0,0,0,0,0,0,0,0,0,0,0,0,0,0,0,0,0,0,0,0,0,0,0,0,0,0,0,0,0,0,0,0,0,0,0,0,0,0,0,0,0,0,0,0,0,0,0,0,0,0,0,0,0,0,0,0,0,0,0,0,0,0,0,0,0,0,0,0,0,0,0,0,0,0,0,0,0,0,0,0,0,0,0,0,0,0,0,0,0,0,0,0,0,0,0,0,0,0,0,0,0,0,0,0,0,0,0,0,0,0,0,0,0,0,0,0,0,0,0,0],"id":2,"left_children":[1,3,5,7,9,11,13,15,17,19,21,23,25,27,29,31,33,35,37,39,41,43,45,47,49,51,53,55,57,59,61,63,65,67,69,71,73,75,77,79,81,83,85,87,89,91,93,95,97,99,101,103,105,107,109,111,113,115,117,119,121,123,125,-1,-1,-1,-1,-1,-1,-1,-1,-1,-1,-1,-1,-1,-1,-1,-1,-1,-1,-1,-1,-1,-1,-1,-1,-1,-1,-1,-1,-1,-1,-1,-1,-1,-1,-1,-1,-1,-1,-1,-1,-1,-1,-1,-1,-1,-1,-1,-1,-1,-1,-1,-1,-1,-1,-1,-1,-1,-1,-1,-1,-1,-1,-1,-1],"loss_changes":[2.597394E3,1.3693256E3,5.233108E2,4.8481696E2,8.045388E2,2.2384204E2,1.3508905E2,1.0196356E2,1.4865785E2,1.9612596E2,2.0277979E2,1.4448438E2,4.5955566E1,6.2710205E1,8.172406E1,3.9703533E1,5.1037292E1,4.7129745E1,1.1178585E2,6.519357E1,1.3330655E2,1.5855444E2,4.096814E1,1.7783963E2,8.318207E1,1.5940176E1,5.880127E1,2.8783047E1,2.6446106E1,5.8628574E1,4.603356E1,3.0796452E1,2.8250534E1,3.8151855E1,4.228778E1,3.339943E1,2.2363707E1,8.265994E1,4.8684868E1,3.6096893E1,2.2502148E1,6.0045563E1,6.335369E1,3.636853E1,5.170558E1,1.7744751E1,2.5916656E1,8.636902E1,1.3763579E2,2.1361023E1,4.1843178E1,9.307065E0,8.755964E0,2.9178345E1,4.390178E1,1.031329E1,1.8295475E1,1.2254227E1,1.67229E1,2.860791E1,2.077266E1,2.263793E1,4.9006798E1,0E0,0E0,0E0,0E0,0E0,0E0,0E0,0E0,0E0,0E0,0E0,0E0,0E0,0E0,0E0,0E0,0E0,0E0,0E0,0E0,0E0,0E0,0E0,0E0,0E0,0E0,0E0,0E0,0E0,0E0,0E0,0E0,0E0,0E0,0E0,0E0,0E0,0E0,0E0,0E0,0E0,0E0,0E0,0E0,0E0,0E0,0E0,0E0,0E0,0E0,0E0,0E0,0E0,0E0,0E0,0E0,0E0,0E0,0E0,0E0,0E0,0E0,0E0,0E0],"parents":[2147483647,0,0,1,1,2,2,3,3,4,4,5,5,6,6,7,7,8,8,9,9,10,10,11,11,12,12,13,13,14,14,15,15,16,16,17,17,18,18,19,19,20,20,21,21,22,22,23,23,24,24,25,25,26,26,27,27,28,28,29,29,30,30,31,31,32,32,33,33,34,34,35,35,36,36,37,37,38,38,39,39,40,40,41,41,42,42,43,43,44,44,45,45,46,46,47,47,48,48,49,49,50,50,51,51,52,52,53,53,54,54,55,55,56,56,57,57,58,58,59,59,60,60,61,61,62,62],"right_children":[2,4,6,8,10,12,14,16,18,20,22,24,26,28,30,32,34,36,38,40,42,44,46,48,50,52,54,56,58,60,62,64,66,68,70,72,74,76,78,80,82,84,86,88,90,92,94,96,98,100,102,104,106,108,110,112,114,116,118,120,122,124,126,-1,-1,-1,-1,-1,-1,-1,-1,-1,-1,-1,-1,-1,-1,-1,-1,-1,-1,-1,-1,-1,-1,-1,-1,-1,-1,-1,-1,-1,-1,-1,-1,-1,-1,-1,-1,-1,-1,-1,-1,-1,-1,-1,-1,-1,-1,-1,-1,-1,-1,-1,-1,-1,-1,-1,-1,-1,-1,-1,-1,-1,-1,-1,-1],"split_conditions":[7.05E2,4.0086E0,2.25E-1,1.519E-1,2.023E-1,7.5E2,3.9956353E0,4.6532125E0,5E-1,4.815578E0,2.934E-1,4.951823E0,4.4771214E0,4.630428E0,7.4E2,1E0,7.23E-2,4.462398E0,6.85E2,6.85E2,4.304275E0,6.8E2,6.85E2,3.961421E0,4.4771214E0,5E-1,4.304275E0,2.684E-1,7.2E2,3.026E-1,4.662758E0,6.8E2,3.8573325E0,2E0,6.85E2,3.7263196E0,3.9242792E0,3.026E-1,4.913814E0,4.1818438E0,4.290035E0,6.75E2,5.165096E0,4.9777236E0,4.5E1,3.8E1,5.021189E0,4.3802114E0,3E-1,1.926E-1,2.23E-1,1.346E-1,6.16E-2,4.662758E0,4.8463373E0,1E0,2.6E1,3.7263196E0,5.3E1,2.8E1,3.6E1,7E0,3.6E-2,1.7751617E-2,-1.4654197E-2,-2.4163818E-2,-3.8968201E-3,-4.6908822E-2,-4.972176E-3,-1.9132389E-2,-3.741519E-2,1.9437632E-2,5.167933E-2,1.4810684E-3,2.8388707E-2,5.0755945E-5,1.8894378E-2,-8.777606E-3,-3.5419475E-2,1.7229931E-2,3.1890776E-2,1.5949181E-3,2.0702055E-2,1.5557692E-3,-1.4081733E-2,1.4165652E-2,-5.7181367E-3,3.6254745E-2,1.9895837E-2,1.7713174E-2,-4.341735E-3,5.1163055E-2,3.9454512E-2,3.6077034E-2,3.6395718E-3,7.360051E-3,-4.4637997E-2,7.7549294E-3,-2.1060335E-2,-4.9273755E-2,-2.9786974E-2,1.9370934E-2,-2.6453558E-2,-7.2513605E-3,4.9000025E-2,-8.218905E-2,-1.6792884E-2,-4.0785145E-2,-6.578762E-2,1.9847519E-4,-4.4804905E-2,-9.17518E-3,-3.897768E-2,7.145822E-2,-3.3095211E-3,-9.877958E-3,-3.6981627E-2,-5.7227463E-2,-7.9043873E-4,5.1549304E-2,-4.113208E-3,2.5544692E-2,7.845848E-3,2.9455855E-2,-2.3214318E-2,4.262155E-2,-3.1227587E-2],"split_indices":[0,8,1,1,1,0,8,6,7,6,1,6,6,6,0,7,1,6,0,0,8,0,0,8,8,7,8,1,0,1,6,0,8,3,0,8,8,1,6,8,8,0,6,6,5,5,6,6,2,1,2,1,1,6,6,7,5,8,5,5,5,7,2,0,0,0,0,0,0,0,0,0,0,0,0,0,0,0,0,0,0,0,0,0,0,0,0,0,0,0,0,0,0,0,0,0,0,0,0,0,0,0,0,0,0,0,0,0,0,0,0,0,0,0,0,0,0,0,0,0,0,0,0,0,0,0,0],"split_type":[0,0,0,0,0,0,0,0,0,0,0,0,0,0,0,0,0,0,0,0,0,0,0,0,0,0,0,0,0,0,0,0,0,0,0,0,0,0,0,0,0,0,0,0,0,0,0,0,0,0,0,0,0,0,0,0,0,0,0,0,0,0,0,0,0,0,0,0,0,0,0,0,0,0,0,0,0,0,0,0,0,0,0,0,0,0,0,0,0,0,0,0,0,0,0,0,0,0,0,0,0,0,0,0,0,0,0,0,0,0,0,0,0,0,0,0,0,0,0,0,0,0,0,0,0,0,0],"sum_hessian":[3.1734756E4,2.3113408E4,8.621348E3,8.900338E3,1.4213071E4,5.538355E3,3.0829927E3,3.152551E3,5.747786E3,7.2939673E3,6.919104E3,4.299462E3,1.2388928E3,7.395075E2,2.343485E3,1.0221126E3,2.1304385E3,6.6679706E2,5.0809893E3,2.5519712E3,4.741996E3,4.5126523E3,2.4064514E3,2.7532102E3,1.5462518E3,5.6151424E1,1.1827415E3,3.7435745E2,3.6515005E2,1.860376E3,4.8310916E2,3.098573E2,7.122553E2,5.3180945E2,1.598629E3,3.294161E2,3.3738095E2,3.5462944E3,1.5346948E3,1.7282058E3,8.237653E2,2.4914788E3,2.2505173E3,2.338023E3,2.1746296E3,1.5243922E3,8.8205927E2,8.561814E2,1.8970289E3,1.140036E3,4.062158E2,2.8054033E1,2.8097391E1,8.017617E2,3.8097974E2,1.3475873E2,2.3959872E2,1.7348067E2,1.9166939E2,1.1815577E3,6.788182E2,9.1363304E1,3.9174588E2,1.9288689E2,1.1697041E2,4.2161353E2,2.9064175E2,4.7023654E2,6.1572903E1,1.1619001E3,4.3672897E2,1.4497348E2,1.8444261E2,2.1900313E2,1.1837781E2,2.8135386E3,7.3275586E2,1.3387743E3,1.959205E2,9.9659937E2,7.3160645E2,6.1958264E2,2.0418266E2,1.0936813E3,1.3977975E3,1.7298854E3,5.206319E2,1.9201404E3,4.178825E2,1.8651633E3,3.094663E2,1.01451556E3,5.0987665E2,8.1519904E2,6.6860245E1,8.883103E1,7.673504E2,6.104453E2,1.2865836E3,9.6875757E2,1.7127844E2,5.7343964E1,3.4887183E2,1.5205422E1,1.2848611E1,5.98847E0,2.2108921E1,1.5005582E2,6.517059E2,6.537209E1,3.1560767E2,4.3448494E1,9.1310234E1,7.4796205E0,2.3211911E2,7.1866165E1,1.016145E2,1.7747122E2,1.4198161E1,2.255515E1,1.1590026E3,2.8947272E2,3.8934546E2,6.2091347E1,2.9271957E1,2.3067207E1,3.6867865E2],"tree_param":{"num_deleted":"0","num_feature":"12","num_nodes":"127","size_leaf_vector":"1"}},{"base_weights":[-4.794497E-3,-2.1639356E-1,2.5762135E-1,-4.309971E-1,-8.161436E-2,-1.0097959E-2,3.999359E-1,-1.824047E-1,-5.843159E-1,9.027194E-2,-3.029023E-1,-1.890494E-1,1.7572585E-1,2.6227978E-1,6.22733E-1,1.8507726E-1,-2.5237218E-1,-4.32724E-1,-7.596123E-1,3.120137E-1,2.7339322E-2,-4.262088E-1,1.0448161E-2,5.588005E-3,-3.1735095E-1,5.481428E-2,4.218877E-1,4.0076178E-1,1.0704423E-1,4.9112266E-1,8.852045E-1,-2.6251358E-1,3.8566965E-1,-1.6436082E-1,-5.065713E-1,-7.722831E-1,-3.55855E-1,-8.783763E-1,-5.7733583E-1,4.3495157E-1,2.3731813E-1,-1.514153E-1,1.9622114E-1,-2.5547248E-1,-5.437708E-1,1.1962685E-1,-4.0674624E-1,-7.860429E-2,4.462003E-1,-4.4629037E-1,-1.860847E-1,5.7259667E-1,-5.168918E-3,4.556122E-1,-1.2732562E-1,2.2797367E-1,4.7775275E-1,-2.874132E-1,1.623009E-1,3.8274148E-1,5.86509E-1,7.3420995E-1,9.5735234E-1,6.177321E-3,-3.9795756E-2,2.2283053E-2,-3.9033215E-2,-1.4048022E-2,-3.6356158E-3,-3.4105517E-2,-2.289007E-3,-5.557364E-2,-2.6880955E-2,-3.118865E-2,-1.3298089E-2,-4.5972712E-2,-2.7949343E-2,-1.0738991E-2,-3.461256E-2,-5.668161E-3,2.3261448E-2,3.982398E-3,1.7797718E-2,-2.0479163E-2,-2.1036451E-3,2.6003984E-3,2.1883925E-2,-3.374132E-2,-9.537167E-3,-3.8844418E-2,-1.9308433E-2,1.73017E-2,-1.2175811E-3,-2.3571702E-2,1.3896626E-2,-1.9691495E-2,3.0418118E-3,1.0464988E-2,4.957677E-2,-1.8151408E-2,-3.6303937E-2,-2.0629628E-2,-3.5361678E-3,-4.7663376E-2,3.4755055E-2,5.1740236E-3,-5.4518078E-3,3.7938688E-2,2.0122267E-2,-2.581123E-2,5.0940454E-2,4.007317E-3,1.9709399E-2,1.5818765E-2,2.7304688E-2,-3.563223E-2,-6.989524E-3,2.420942E-3,1.5539634E-2,2.9480824E-2,1.3700898E-2,3.4079555E-2,1.6545204E-2,3.0423999E-2,5.8347907E-2,-2.110344E-2,4.8325423E-2],"categories":[],"categories_nodes":[],"categories_segments":[],"categories_sizes":[],"default_left":[0,0,0,0,0,0,0,0,0,0,0,0,0,0,0,0,0,0,0,0,0,0,0,0,0,0,0,0,0,0,0,0,0,0,0,0,0,0,0,0,0,0,0,0,0,0,0,0,0,0,0,0,0,0,0,0,0,0,0,0,0,0,0,0,0,0,0,0,0,0,0,0,0,0,0,0,0,0,0,0,0,0,0,0,0,0,0,0,0,0,0,0,0,0,0,0,0,0,0,0,0,0,0,0,0,0,0,0,0,0,0,0,0,0,0,0,0,0,0,0,0,0,0,0,0,0,0],"id":3,"left_children":[1,3,5,7,9,11,13,15,17,19,21,23,25,27,29,31,33,35,37,39,41,43,45,47,49,51,53,55,57,59,61,63,65,67,69,71,73,75,77,79,81,83,85,87,89,91,93,95,97,99,101,103,105,107,109,111,113,115,117,119,121,123,125,-1,-1,-1,-1,-1,-1,-1,-1,-1,-1,-1,-1,-1,-1,-1,-1,-1,-1,-1,-1,-1,-1,-1,-1,-1,-1,-1,-1,-1,-1,-1,-1,-1,-1,-1,-1,-1,-1,-1,-1,-1,-1,-1,-1,-1,-1,-1,-1,-1,-1,-1,-1,-1,-1,-1,-1,-1,-1,-1,-1,-1,-1,-1,-1],"loss_changes":[1.7567877E3,5.0657397E2,5.381085E2,2.5740857E2,4.092857E2,1.6307169E2,2.826526E2,6.635412E1,1.1071118E2,8.450958E1,1.817619E2,6.238553E1,7.158222E1,1.2252457E2,1.2119165E2,3.7186462E1,4.8393707E1,5.8274323E1,4.141333E1,1.2191055E1,1.4248105E2,6.76192E1,6.059901E1,3.6888985E1,2.5400665E1,5.0146027E1,1.4732971E1,3.997345E1,5.866851E1,2.4041931E1,1.2093323E1,2.6543583E1,2.0333492E1,1.7195297E1,4.5005997E1,3.229193E1,4.3930008E1,1.4844055E1,3.180188E1,8.433304E0,1.5590935E1,6.470923E1,8.448211E1,3.72883E1,7.311713E1,3.4379353E1,1.2353287E1,3.6724E1,2.0401936E1,1.741426E1,1.9511238E1,3.1995682E1,1.6350561E1,1.1729752E1,2.1305124E1,2.2834919E1,2.2804138E1,2.0667465E1,3.9888695E1,2.4617554E1,3.0071503E1,2.0187332E1,1.0405273E1,0E0,0E0,0E0,0E0,0E0,0E0,0E0,0E0,0E0,0E0,0E0,0E0,0E0,0E0,0E0,0E0,0E0,0E0,0E0,0E0,0E0,0E0,0E0,0E0,0E0,0E0,0E0,0E0,0E0,0E0,0E0,0E0,0E0,0E0,0E0,0E0,0E0,0E0,0E0,0E0,0E0,0E0,0E0,0E0,0E0,0E0,0E0,0E0,0E0,0E0,0E0,0E0,0E0,0E0,0E0,0E0,0E0,0E0,0E0,0E0,0E0,0E0,0E0,0E0],"parents":[2147483647,0,0,1,1,2,2,3,3,4,4,5,5,6,6,7,7,8,8,9,9,10,10,11,11,12,12,13,13,14,14,15,15,16,16,17,17,18,18,19,19,20,20,21,21,22,22,23,23,24,24,25,25,26,26,27,27,28,28,29,29,30,30,31,31,32,32,33,33,34,34,35,35,36,36,37,37,38,38,39,39,40,40,41,41,42,42,43,43,44,44,45,45,46,46,47,47,48,48,49,49,50,50,51,51,52,52,53,53,54,54,55,55,56,56,57,57,58,58,59,59,60,60,61,61,62,62],"right_children":[2,4,6,8,10,12,14,16,18,20,22,24,26,28,30,32,34,36,38,40,42,44,46,48,50,52,54,56,58,60,62,64,66,68,70,72,74,76,78,80,82,84,86,88,90,92,94,96,98,100,102,104,106,108,110,112,114,116,118,120,122,124,126,-1,-1,-1,-1,-1,-1,-1,-1,-1,-1,-1,-1,-1,-1,-1,-1,-1,-1,-1,-1,-1,-1,-1,-1,-1,-1,-1,-1,-1,-1,-1,-1,-1,-1,-1,-1,-1,-1,-1,-1,-1,-1,-1,-1,-1,-1,-1,-1,-1,-1,-1,-1,-1,-1,-1,-1,-1,-1,-1,-1,-1,-1,-1,-1],"split_conditions":[2.064E-1,4.020154E0,4.0086E0,4.662758E0,4.944483E0,1E0,1E0,5E-1,1E0,4.690196E0,4.462398E0,4.6334686E0,3.005E-1,4.8573327E0,3.026E-1,3E-1,1E0,7.4E-2,1.482E-1,4.5910645E0,4.234264E0,1E0,5.2787538E0,4E0,3.8750613E0,5E-1,4.8512583E0,2.476E-1,3.3E-1,4.2148438E0,4.94E-1,4.462398E0,4.630428E0,4.2E-1,3.9395192E0,3.8309093E0,3.14E-1,2E0,3E0,4.4291773E0,4.1583624E0,1.135E-1,1E0,4.130334E0,1.187E-1,1E0,1.859E-1,3.83E-1,3.189E-1,4.9047155E0,4.46E-1,3.4771214E0,4.623249E0,5E-1,3.66E-1,5.76E-1,4.54E-1,2.283E-1,2.684E-1,4.6334686E0,4.937016E0,4.357935E0,4.020154E0,6.177321E-3,-3.9795756E-2,2.2283053E-2,-3.9033215E-2,-1.4048022E-2,-3.6356158E-3,-3.4105517E-2,-2.289007E-3,-5.557364E-2,-2.6880955E-2,-3.118865E-2,-1.3298089E-2,-4.5972712E-2,-2.7949343E-2,-1.0738991E-2,-3.461256E-2,-5.668161E-3,2.3261448E-2,3.982398E-3,1.7797718E-2,-2.0479163E-2,-2.1036451E-3,2.6003984E-3,2.1883925E-2,-3.374132E-2,-9.537167E-3,-3.8844418E-2,-1.9308433E-2,1.73017E-2,-1.2175811E-3,-2.3571702E-2,1.3896626E-2,-1.9691495E-2,3.0418118E-3,1.0464988E-2,4.957677E-2,-1.8151408E-2,-3.6303937E-2,-2.0629628E-2,-3.5361678E-3,-4.7663376E-2,3.4755055E-2,5.1740236E-3,-5.4518078E-3,3.7938688E-2,2.0122267E-2,-2.581123E-2,5.0940454E-2,4.007317E-3,1.9709399E-2,1.5818765E-2,2.7304688E-2,-3.563223E-2,-6.989524E-3,2.420942E-3,1.5539634E-2,2.9480824E-2,1.3700898E-2,3.4079555E-2,1.6545204E-2,3.0423999E-2,5.8347907E-2,-2.110344E-2,4.8325423E-2],"split_indices":[1,8,8,6,6,11,11,7,9,6,8,6,1,6,1,2,9,1,1,6,8,9,6,8,8,7,6,1,2,8,2,6,6,2,8,8,2,3,7,6,8,1,11,8,1,9,1,2,1,6,2,8,6,7,1,2,2,1,1,6,6,8,8,0,0,0,0,0,0,0,0,0,0,0,0,0,0,0,0,0,0,0,0,0,0,0,0,0,0,0,0,0,0,0,0,0,0,0,0,0,0,0,0,0,0,0,0,0,0,0,0,0,0,0,0,0,0,0,0,0,0,0,0,0,0,0,0],"split_type":[0,0,0,0,0,0,0,0,0,0,0,0,0,0,0,0,0,0,0,0,0,0,0,0,0,0,0,0,0,0,0,0,0,0,0,0,0,0,0,0,0,0,0,0,0,0,0,0,0,0,0,0,0,0,0,0,0,0,0,0,0,0,0,0,0,0,0,0,0,0,0,0,0,0,0,0,0,0,0,0,0,0,0,0,0,0,0,0,0,0,0,0,0,0,0,0,0,0,0,0,0,0,0,0,0,0,0,0,0,0,0,0,0,0,0,0,0,0,0,0,0,0,0,0,0,0,0],"sum_hessian":[3.1636469E4,1.7514127E4,1.4122343E4,6.7554673E3,1.0758659E4,4.9019053E3,9.2204375E3,2.5778726E3,4.1775947E3,6.055566E3,4.703093E3,2.4971199E3,2.4047854E3,5.700523E3,3.5199148E3,4.1205243E2,2.16582E3,2.2421277E3,1.9354669E3,1.3378218E3,4.717744E3,3.3747397E3,1.3283531E3,9.9246954E2,1.5046503E3,1.613485E3,7.913006E2,3.0120034E3,2.6885195E3,2.3462915E3,1.1736233E3,1.27421776E2,2.8463065E2,1.6100271E3,5.55793E2,4.1220734E2,1.8299203E3,1.1695901E3,7.658769E2,5.038068E2,8.34015E2,2.291931E3,2.4258135E3,1.3774419E3,1.9972979E3,1.0533955E3,2.7495758E2,8.3394147E2,1.585281E2,7.57842E2,7.4680835E2,1.6662358E2,1.4468613E3,7.456823E2,4.5618267E1,9.296293E2,2.082374E3,3.29824E2,2.3586956E3,1.1006769E3,1.2456146E3,3.8307703E2,7.9054626E2,7.4366165E1,5.305561E1,2.7129428E2,1.3336363E1,7.076524E2,9.0237476E2,4.021233E2,1.5366972E2,1.6703459E2,2.4517274E2,4.5824054E2,1.3716798E3,1.034642E3,1.3494806E2,1.8501768E2,5.808592E2,2.6220287E1,4.7758652E2,3.5881427E2,4.752007E2,6.810828E2,1.610848E3,1.5194937E3,9.063197E2,1.8292427E2,1.1945176E3,8.0405237E2,1.1932455E3,4.0893655E2,6.444589E2,2.5150691E2,2.3450676E1,2.552001E2,5.7874133E2,1.1148249E2,4.7045624E1,5.8580865E2,1.720333E2,2.511358E2,4.9567255E2,1.187924E1,1.5474434E2,7.071535E2,7.397079E2,1.0928115E2,6.364012E2,3.447129E1,1.1146979E1,4.9281384E2,4.3681543E2,6.211791E2,1.461195E3,8.400831E1,2.4581569E2,1.3356659E3,1.0230296E3,3.7765884E2,7.2301807E2,9.066751E2,3.3893948E2,2.9869943E2,8.4377594E1,4.9154024E0,7.8563086E2],"tree_param":{"num_deleted":"0","num_feature":"12","num_nodes":"127","size_leaf_vector":"1"}},{"base_weights":[4.803529E-4,-2.361703E-1,1.3655476E-1,-2.4023918E-2,-4.0992382E-1,2.8576228E-1,-1.449565E-1,3.4754416E-1,-1.02770016E-1,-2.5860107E-1,-5.715376E-1,4.1180426E-1,1.3552512E-1,-2.5750723E-1,1.12260975E-1,-5.9719075E-2,4.9536943E-1,-2.293372E-1,8.059338E-2,-5.378181E-1,-1.6145284E-1,-6.6948146E-1,-4.167394E-1,3.030597E-1,5.1936567E-1,2.737292E-1,-3.6728315E-3,-7.191344E-2,-3.7548253E-1,1.9800328E-1,-3.8400757E-1,1.9504263E-1,-5.9113383E-1,4.085593E-1,8.68611E-1,-1.5106523E-1,-4.5448697E-1,-3.5285357E-2,3.8881156E-1,-6.703656E-1,-3.7748986E-1,-5.649856E-1,-7.1215086E-2,-7.5946534E-1,-2.5494704E-1,-2.8215528E-1,-5.541188E-1,4.786714E-1,7.3647596E-2,2.7386695E-1,5.8875215E-1,1.9635731E-1,4.9832037E-1,-2.3028044E-1,1.2508777E-1,-4.699708E-1,-1.1747379E-2,-5.9850717E-1,-2.3994969E-1,4.0269238E-1,7.5031064E-2,5.1272696E-1,-5.579583E-1,2.4097772E-2,-1.7132666E-2,-8.6255044E-2,-2.2665624E-2,3.0091742E-2,4.057569E-3,3.5223555E-2,6.162209E-2,-1.3378493E-2,1.2514033E-4,-3.0403096E-2,-8.2189245E-3,-4.8338235E-3,1.3618593E-2,1.5852656E-2,4.2695265E-2,-1.1563782E-2,-3.7761386E-2,-1.2208608E-2,-4.02984E-2,-5.1065512E-2,-2.0129127E-2,-1.0399857E-3,-1.4536525E-2,-3.1545565E-2,-4.677015E-2,-5.8813136E-2,-9.853217E-3,-5.436405E-3,-2.7292976E-2,-2.1788869E-2,-4.278792E-2,2.8452784E-2,1.7870069E-2,-6.1465222E-3,1.15646375E-2,1.8988786E-2,-1.0277524E-3,2.4798337E-2,3.584074E-2,1.6610628E-2,-1.3722797E-3,4.1335765E-2,2.2107285E-2,-2.8804077E-2,-5.237827E-3,-1.9274147E-2,8.979107E-3,-3.5398956E-2,-1.1303169E-2,7.913352E-3,-6.4942786E-3,-1.797561E-2,-3.726036E-2,-2.1218231E-2,-3.4144134E-3,-3.6908522E-2,2.1501942E-2,1.7432665E-2,-1.5371374E-3,-7.3703686E-3,3.4328904E-2,-3.5287224E-2,3.1974528E-3],"categories":[],"categories_nodes":[],"categories_segments":[],"categories_sizes":[],"default_left":[0,0,0,0,0,0,0,0,0,0,0,0,0,0,0,0,0,0,0,0,0,0,0,0,0,0,0,0,0,0,0,0,0,0,0,0,0,0,0,0,0,0,0,0,0,0,0,0,0,0,0,0,0,0,0,0,0,0,0,0,0,0,0,0,0,0,0,0,0,0,0,0,0,0,0,0,0,0,0,0,0,0,0,0,0,0,0,0,0,0,0,0,0,0,0,0,0,0,0,0,0,0,0,0,0,0,0,0,0,0,0,0,0,0,0,0,0,0,0,0,0,0,0,0,0,0,0],"id":4,"left_children":[1,3,5,7,9,11,13,15,17,19,21,23,25,27,29,31,33,35,37,39,41,43,45,47,49,51,53,55,57,59,61,63,65,67,69,71,73,75,77,79,81,83,85,87,89,91,93,95,97,99,101,103,105,107,109,111,113,115,117,119,121,123,125,-1,-1,-1,-1,-1,-1,-1,-1,-1,-1,-1,-1,-1,-1,-1,-1,-1,-1,-1,-1,-1,-1,-1,-1,-1,-1,-1,-1,-1,-1,-1,-1,-1,-1,-1,-1,-1,-1,-1,-1,-1,-1,-1,-1,-1,-1,-1,-1,-1,-1,-1,-1,-1,-1,-1,-1,-1,-1,-1,-1,-1,-1,-1,-1],"loss_changes":[1.0219429E3,4.270606E2,8.463875E2,1.527027E2,1.5561707E2,2.4932727E2,2.0212057E2,5.497399E1,9.99522E1,8.9187546E1,4.6404297E1,8.3602905E1,1.1561303E2,1.06302124E2,9.0518555E1,3.3140514E1,2.1344284E1,4.4831573E1,6.284556E1,1.7791153E1,8.89216E1,7.008978E1,2.1954056E1,1.4352179E2,6.1139893E1,5.2304443E1,8.741868E1,4.522307E1,8.9592316E1,4.5605637E1,4.918356E1,2.5718864E1,1.1610802E1,3.445269E1,6.625496E0,3.3852608E1,2.9160553E1,2.4191774E1,1.5774467E1,1.7097397E1,2.1885284E1,3.266594E1,2.2102852E1,3.4413452E1,1.7769876E1,2.7660366E1,2.0714691E1,2.1917297E1,4.7943867E1,2.4792976E1,3.297235E1,6.825474E1,1.3876617E1,4.7059258E1,5.3225494E1,1.4233318E1,3.2991528E1,3.9052216E1,5.8480186E1,2.1538857E1,3.2825886E1,6.005825E0,2.4219177E1,0E0,0E0,0E0,0E0,0E0,0E0,0E0,0E0,0E0,0E0,0E0,0E0,0E0,0E0,0E0,0E0,0E0,0E0,0E0,0E0,0E0,0E0,0E0,0E0,0E0,0E0,0E0,0E0,0E0,0E0,0E0,0E0,0E0,0E0,0E0,0E0,0E0,0E0,0E0,0E0,0E0,0E0,0E0,0E0,0E0,0E0,0E0,0E0,0E0,0E0,0E0,0E0,0E0,0E0,0E0,0E0,0E0,0E0,0E0,0E0,0E0,0E0,0E0,0E0],"parents":[2147483647,0,0,1,1,2,2,3,3,4,4,5,5,6,6,7,7,8,8,9,9,10,10,11,11,12,12,13,13,14,14,15,15,16,16,17,17,18,18,19,19,20,20,21,21,22,22,23,23,24,24,25,25,26,26,27,27,28,28,29,29,30,30,31,31,32,32,33,33,34,34,35,35,36,36,37,37,38,38,39,39,40,40,41,41,42,42,43,43,44,44,45,45,46,46,47,47,48,48,49,49,50,50,51,51,52,52,53,53,54,54,55,55,56,56,57,57,58,58,59,59,60,60,61,61,62,62],"right_children":[2,4,6,8,10,12,14,16,18,20,22,24,26,28,30,32,34,36,38,40,42,44,46,48,50,52,54,56,58,60,62,64,66,68,70,72,74,76,78,80,82,84,86,88,90,92,94,96,98,100,102,104,106,108,110,112,114,116,118,120,122,124,126,-1,-1,-1,-1,-1,-1,-1,-1,-1,-1,-1,-1,-1,-1,-1,-1,-1,-1,-1,-1,-1,-1,-1,-1,-1,-1,-1,-1,-1,-1,-1,-1,-1,-1,-1,-1,-1,-1,-1,-1,-1,-1,-1,-1,-1,-1,-1,-1,-1,-1,-1,-1,-1,-1,-1,-1,-1,-1,-1,-1,-1,-1,-1,-1],"split_conditions":[4.0086E0,4.662758E0,4.942008E0,5E-1,1E0,1E0,4.462398E0,3.1E-1,3.867762E0,8E0,6.03E-1,4.20412E0,3.6E1,1E0,5.2787538E0,4.2E1,3.961421E0,1E0,1.3E1,3.8920946E0,2.6E-1,1.8E1,9E0,4.7160034E0,1E0,4.3222194E0,4.7E-1,4.146128E0,4.76E-1,1E0,3.4E1,4.462398E0,6E0,4.4393325E0,1.2E1,1E1,5.94E-1,7.77E-1,7.19E-1,1E0,4.8808136E0,3.7032914E0,4.944483E0,4.8512583E0,8E-2,4.8808136E0,4.2E1,4.612784E0,1.1E1,4.8692317E0,1.3E1,4.79588E0,3.1E1,1.1E1,7E0,1.2E1,3.5E1,5.021189E0,1.3E1,2.9E1,3.5E1,3.14E-1,1E0,2.4097772E-2,-1.7132666E-2,-8.6255044E-2,-2.2665624E-2,3.0091742E-2,4.057569E-3,3.5223555E-2,6.162209E-2,-1.3378493E-2,1.2514033E-4,-3.0403096E-2,-8.2189245E-3,-4.8338235E-3,1.3618593E-2,1.5852656E-2,4.2695265E-2,-1.1563782E-2,-3.7761386E-2,-1.2208608E-2,-4.02984E-2,-5.1065512E-2,-2.0129127E-2,-1.0399857E-3,-1.4536525E-2,-3.1545565E-2,-4.677015E-2,-5.8813136E-2,-9.853217E-3,-5.436405E-3,-2.7292976E-2,-2.1788869E-2,-4.278792E-2,2.8452784E-2,1.7870069E-2,-6.1465222E-3,1.15646375E-2,1.8988786E-2,-1.0277524E-3,2.4798337E-2,3.584074E-2,1.6610628E-2,-1.3722797E-3,4.1335765E-2,2.2107285E-2,-2.8804077E-2,-5.237827E-3,-1.9274147E-2,8.979107E-3,-3.5398956E-2,-1.1303169E-2,7.913352E-3,-6.4942786E-3,-1.797561E-2,-3.726036E-2,-2.1218231E-2,-3.4144134E-3,-3.6908522E-2,2.1501942E-2,1.7432665E-2,-1.5371374E-3,-7.3703686E-3,3.4328904E-2,-3.5287224E-2,3.1974528E-3],"split_indices":[8,6,6,7,9,9,8,2,8,4,2,8,5,9,6,5,8,9,4,8,2,4,7,6,11,8,2,8,2,9,5,6,4,6,4,4,2,2,2,11,6,8,6,6,2,6,5,6,4,6,4,6,5,4,4,4,5,6,4,5,5,2,11,0,0,0,0,0,0,0,0,0,0,0,0,0,0,0,0,0,0,0,0,0,0,0,0,0,0,0,0,0,0,0,0,0,0,0,0,0,0,0,0,0,0,0,0,0,0,0,0,0,0,0,0,0,0,0,0,0,0,0,0,0,0,0,0],"split_type":[0,0,0,0,0,0,0,0,0,0,0,0,0,0,0,0,0,0,0,0,0,0,0,0,0,0,0,0,0,0,0,0,0,0,0,0,0,0,0,0,0,0,0,0,0,0,0,0,0,0,0,0,0,0,0,0,0,0,0,0,0,0,0,0,0,0,0,0,0,0,0,0,0,0,0,0,0,0,0,0,0,0,0,0,0,0,0,0,0,0,0,0,0,0,0,0,0,0,0,0,0,0,0,0,0,0,0,0,0,0,0,0,0,0,0,0,0,0,0,0,0,0,0,0,0,0,0],"sum_hessian":[3.1733285E4,1.1584914E4,2.014837E4,5.216683E3,6.368231E3,1.3168659E4,6.979711E3,9.1164044E2,4.3050425E3,3.290169E3,3.0780623E3,7.160007E3,6.008652E3,4.855213E3,2.1244983E3,2.4293713E2,6.687033E2,2.5468325E3,1.7582102E3,8.4809485E2,2.4420742E3,1.8831998E3,1.1948624E3,3.5623198E3,3.597687E3,3.014605E3,2.994047E3,1.887495E3,2.967718E3,1.8120278E3,3.124703E2,1.6464084E2,7.8296295E1,5.4422076E2,1.2448258E2,1.8910806E3,6.5575183E2,1.2784467E3,4.7976355E2,4.6252893E2,3.8556592E2,4.4533353E2,1.9967406E3,1.5466361E3,3.3656363E2,6.0511426E2,5.8974817E2,2.0171409E3,1.545179E3,7.938581E2,2.8038289E3,2.2435679E3,7.7103723E2,1.0845477E3,1.9094994E3,2.4693922E2,1.6405558E3,1.1204907E3,1.8472272E3,6.792055E2,1.1328224E3,5.044961E1,2.620207E2,1.07423615E2,5.7217224E1,7.2367554E0,7.105954E1,3.416812E2,2.0253952E2,8.7805824E1,3.6676758E1,1.0748795E3,8.162011E2,4.2805573E2,2.2769612E2,1.066349E3,2.1209766E2,4.1709277E2,6.2670773E1,7.551707E1,3.8701184E2,2.9526602E2,9.0299904E1,1.15502525E2,3.29831E2,1.6246967E3,3.7204388E2,8.963081E2,6.5032806E2,1.8752926E1,3.1781073E2,3.6589368E2,2.3922057E2,4.2532593E2,1.6442226E2,1.1536307E3,8.635101E2,6.877717E2,8.574072E2,5.8362714E2,2.1023091E2,1.628675E3,1.1751539E3,1.3957938E3,8.4777405E2,1.1062297E2,6.6041425E2,2.8788226E2,7.966654E2,1.8356468E2,1.7259347E3,1.24018036E2,1.2292118E2,6.724636E2,9.680921E2,4.274939E2,6.929968E2,8.898231E2,9.574041E2,1.5290954E1,6.6391455E2,3.151853E2,8.176371E2,1.0548341E1,3.9901268E1,2.116021E2,5.041859E1],"tree_param":{"num_deleted":"0","num_feature":"12","num_nodes":"127","size_leaf_vector":"1"}},{"base_weights":[3.0447233E-3,-1.8351544E-1,2.3776092E-1,-5.3678215E-2,-3.2806328E-1,1.4040114E-1,4.5152324E-1,-1.8556514E-1,3.162329E-2,-5.558387E-1,-2.026356E-1,2.0405467E-1,-1.0113064E-1,2.9142967E-1,6.5138215E-1,-1.9138008E-1,8.3390796E-1,2.0217754E-1,-5.393659E-3,-4.4987726E-1,-7.906434E-1,-6.4654134E-2,-3.5783172E-1,1.1874437E-1,3.1332216E-1,-2.620689E-1,2.9338952E-2,4.651775E-1,1.893343E-1,5.5068964E-1,7.544572E-1,-2.959321E-1,-1.3227363E-1,1.251536E0,-7.469624E-3,4.53646E-1,1.4257662E-1,-1.3836277E-1,3.2887183E-2,-7.934886E-2,-5.069255E-1,-7.35556E-1,-1.4992965E0,-1.0782772E-1,2.615604E-1,-3.816433E-1,2.563015E-1,2.980071E-1,6.145284E-2,1.3249183E-1,3.711366E-1,-2.1333726E-1,-9.466485E-1,3.0669922E-1,-1.2636632E-1,3.616365E-1,6.333668E-1,-7.7439465E-2,2.827481E-1,4.5262925E-2,5.922242E-1,4.5852977E-1,8.221549E-1,-1.0538842E-2,-2.770692E-2,-1.8596709E-3,-1.227331E-2,8.344863E-2,1.6848056E-2,1.4362627E-3,3.0310152E-2,-1.7472863E-3,1.1997932E-2,3.1817593E-2,-7.670843E-3,4.607587E-3,-5.7112235E-3,-1.430205E-3,-6.948184E-2,-2.8711317E-2,-1.1325999E-2,-4.053807E-2,-1.6956115E-2,-8.084915E-2,-4.7809523E-2,-9.957596E-3,3.18736E-3,1.7600324E-2,-1.5249816E-3,-2.6602292E-2,-1.4521547E-2,-7.484039E-2,1.6966872E-2,5.318708E-3,2.2343593E-2,-3.781385E-3,6.1544417E-3,-1.018961E-2,9.028568E-3,1.0220783E-2,2.2361673E-2,-2.1723922E-2,-3.022609E-3,-8.992242E-4,-5.8112003E-2,1.0310496E-2,2.8381467E-2,-8.650663E-3,1.9210786E-2,2.0114627E-2,-7.898726E-3,4.483483E-2,2.8557692E-2,-2.540903E-3,-8.403631E-2,9.865076E-3,2.1169307E-2,4.7121327E-2,-3.1245034E-3,4.6368267E-2,2.676726E-2,3.4877453E-2,3.4250363E-3,4.9414877E-2,3.6012247E-2],"categories":[],"categories_nodes":[],"categories_segments":[],"categories_sizes":[],"default_left":[0,0,0,0,0,0,0,0,0,0,0,0,0,0,0,0,0,0,0,0,0,0,0,0,0,0,0,0,0,0,0,0,0,0,0,0,0,0,0,0,0,0,0,0,0,0,0,0,0,0,0,0,0,0,0,0,0,0,0,0,0,0,0,0,0,0,0,0,0,0,0,0,0,0,0,0,0,0,0,0,0,0,0,0,0,0,0,0,0,0,0,0,0,0,0,0,0,0,0,0,0,0,0,0,0,0,0,0,0,0,0,0,0,0,0,0,0,0,0,0,0,0,0,0,0],"id":5,"left_children":[1,3,5,7,9,11,13,15,17,19,21,23,25,27,29,31,33,35,37,39,41,43,45,47,49,51,53,55,57,59,61,63,65,67,-1,69,71,73,75,77,79,81,83,85,87,89,91,93,95,97,99,101,103,105,107,109,111,113,115,117,119,121,123,-1,-1,-1,-1,-1,-1,-1,-1,-1,-1,-1,-1,-1,-1,-1,-1,-1,-1,-1,-1,-1,-1,-1,-1,-1,-1,-1,-1,-1,-1,-1,-1,-1,-1,-1,-1,-1,-1,-1,-1,-1,-1,-1,-1,-1,-1,-1,-1,-1,-1,-1,-1,-1,-1,-1,-1,-1,-1,-1,-1,-1,-1],"loss_changes":[1.3864014E3,3.310479E2,2.9173944E2,1.0456662E2,2.3835657E2,1.4815001E2,1.4018207E2,2.1800102E1,3.5638336E1,7.337891E1,1.1528044E2,7.104593E1,4.2217796E1,4.315422E1,1.982788E1,2.2396683E1,8.7656355E0,1.5022991E1,2.361803E1,4.3173737E1,3.482007E1,4.0188656E1,3.7152588E1,4.3977898E1,3.489789E1,2.9826942E1,4.802371E1,1.5471252E1,3.8328312E1,2.0762726E1,1.8877502E1,2.8695747E1,2.497218E1,5.0762177E0,0E0,1.2456089E1,1.4101969E1,1.2194004E1,3.1421944E1,1.817529E1,3.3299316E1,2.5239746E1,2.6346283E0,3.948198E1,8.822323E0,3.3315277E1,1.4363096E1,2.9542664E1,2.7448593E1,1.3155379E1,3.203653E1,2.8427612E1,1.1897011E1,1.0365532E1,1.7032053E1,1.1901344E1,5.0940247E0,1.696349E1,1.360041E1,7.433503E0,1.6946411E1,1.6844063E1,1.2510315E1,0E0,0E0,0E0,0E0,0E0,0E0,0E0,0E0,0E0,0E0,0E0,0E0,0E0,0E0,0E0,0E0,0E0,0E0,0E0,0E0,0E0,0E0,0E0,0E0,0E0,0E0,0E0,0E0,0E0,0E0,0E0,0E0,0E0,0E0,0E0,0E0,0E0,0E0,0E0,0E0,0E0,0E0,0E0,0E0,0E0,0E0,0E0,0E0,0E0,0E0,0E0,0E0,0E0,0E0,0E0,0E0,0E0,0E0,0E0,0E0,0E0,0E0],"parents":[2147483647,0,0,1,1,2,2,3,3,4,4,5,5,6,6,7,7,8,8,9,9,10,10,11,11,12,12,13,13,14,14,15,15,16,16,17,17,18,18,19,19,20,20,21,21,22,22,23,23,24,24,25,25,26,26,27,27,28,28,29,29,30,30,31,31,32,32,33,33,35,35,36,36,37,37,38,38,39,39,40,40,41,41,42,42,43,43,44,44,45,45,46,46,47,47,48,48,49,49,50,50,51,51,52,52,53,53,54,54,55,55,56,56,57,57,58,58,59,59,60,60,61,61,62,62],"right_children":[2,4,6,8,10,12,14,16,18,20,22,24,26,28,30,32,34,36,38,40,42,44,46,48,50,52,54,56,58,60,62,64,66,68,-1,70,72,74,76,78,80,82,84,86,88,90,92,94,96,98,100,102,104,106,108,110,112,114,116,118,120,122,124,-1,-1,-1,-1,-1,-1,-1,-1,-1,-1,-1,-1,-1,-1,-1,-1,-1,-1,-1,-1,-1,-1,-1,-1,-1,-1,-1,-1,-1,-1,-1,-1,-1,-1,-1,-1,-1,-1,-1,-1,-1,-1,-1,-1,-1,-1,-1,-1,-1,-1,-1,-1,-1,-1,-1,-1,-1,-1,-1,-1,-1,-1],"split_conditions":[2.073E-1,1E0,3.026E-1,1.207E-1,1.187E-1,4.2E1,1E0,6E0,4.5797834E0,4E1,3.7E1,1E0,5.38E-1,3.5E1,4.681241E0,7.23E-2,8.29E-2,5E-1,8E0,3.1E1,5.3521824E0,1.976E-1,5.9E1,3.3E1,3.1E1,5.11E-1,4.781037E0,6.66E-1,4.46E-1,2.23E-1,3.148E-1,6.16E-2,3.5E1,5.54E-1,-7.469624E-3,3.2E-1,4.4771214E0,1.217E-1,4.942008E0,8.88E-1,7.19E-1,7.52E-1,8.09E-1,6.4E-1,3.5E1,4.57E-1,7E0,5E-1,1.1E1,2.75E-1,1E1,2.417E-1,4.588227E0,1.3E1,2.4E1,6.34E-1,1E0,4.43E-1,1.6E1,1.095E-2,5E-1,3.6E1,4.759668E0,-1.0538842E-2,-2.770692E-2,-1.8596709E-3,-1.227331E-2,8.344863E-2,1.6848056E-2,1.4362627E-3,3.0310152E-2,-1.7472863E-3,1.1997932E-2,3.1817593E-2,-7.670843E-3,4.607587E-3,-5.7112235E-3,-1.430205E-3,-6.948184E-2,-2.8711317E-2,-1.1325999E-2,-4.053807E-2,-1.6956115E-2,-8.084915E-2,-4.7809523E-2,-9.957596E-3,3.18736E-3,1.7600324E-2,-1.5249816E-3,-2.6602292E-2,-1.4521547E-2,-7.484039E-2,1.6966872E-2,5.318708E-3,2.2343593E-2,-3.781385E-3,6.1544417E-3,-1.018961E-2,9.028568E-3,1.0220783E-2,2.2361673E-2,-2.1723922E-2,-3.022609E-3,-8.992242E-4,-5.8112003E-2,1.0310496E-2,2.8381467E-2,-8.650663E-3,1.9210786E-2,2.0114627E-2,-7.898726E-3,4.483483E-2,2.8557692E-2,-2.540903E-3,-8.403631E-2,9.865076E-3,2.1169307E-2,4.7121327E-2,-3.1245034E-3,4.6368267E-2,2.676726E-2,3.4877453E-2,3.4250363E-3,4.9414877E-2,3.6012247E-2],"split_indices":[1,9,1,1,1,5,11,3,6,5,5,11,2,5,6,1,1,7,4,5,6,1,5,5,5,2,6,2,2,2,1,1,5,2,0,2,6,1,6,2,2,2,2,2,5,2,4,2,4,2,4,1,6,4,4,2,7,2,4,2,7,5,6,0,0,0,0,0,0,0,0,0,0,0,0,0,0,0,0,0,0,0,0,0,0,0,0,0,0,0,0,0,0,0,0,0,0,0,0,0,0,0,0,0,0,0,0,0,0,0,0,0,0,0,0,0,0,0,0,0,0,0,0,0,0],"split_type":[0,0,0,0,0,0,0,0,0,0,0,0,0,0,0,0,0,0,0,0,0,0,0,0,0,0,0,0,0,0,0,0,0,0,0,0,0,0,0,0,0,0,0,0,0,0,0,0,0,0,0,0,0,0,0,0,0,0,0,0,0,0,0,0,0,0,0,0,0,0,0,0,0,0,0,0,0,0,0,0,0,0,0,0,0,0,0,0,0,0,0,0,0,0,0,0,0,0,0,0,0,0,0,0,0,0,0,0,0,0,0,0,0,0,0,0,0,0,0,0,0,0,0,0,0],"sum_hessian":[3.1659178E4,1.7639188E4,1.401999E4,9.293162E3,8.346026E3,9.633838E3,4.3861523E3,3.6494595E3,5.6437026E3,2.9625796E3,5.383447E3,7.6245986E3,2.0092395E3,2.4367183E3,1.9494338E3,3.6295693E3,1.9890259E1,1.0056669E3,4.6380356E3,2.0433727E3,9.192069E2,2.8505244E3,2.5329224E3,4.2828564E3,3.3417424E3,8.9912836E2,1.1101112E3,9.0056433E2,1.5361539E3,9.893222E2,9.6011163E2,1.3093981E3,2.3201711E3,1.3769342E1,6.120915E0,1.914191E2,8.142478E2,1.036192E3,3.6018435E3,2.729505E2,1.7704222E3,8.5479694E2,6.4409996E1,2.5179502E3,3.3257422E2,2.4387441E3,9.4178055E1,1.0362557E3,3.2466006E3,8.1037317E2,2.5313691E3,8.406019E2,5.852642E1,3.98783E2,7.113282E2,5.593602E2,3.412041E2,3.984423E2,1.1377117E3,7.5284805E1,9.1403735E2,1.801954E2,7.7991626E2,9.86027E2,3.2337103E2,1.2616938E3,1.0584773E3,8.887835E0,4.8815084E0,5.0882675E1,1.4053642E2,2.8866595E2,5.2558185E2,1.8964575E1,1.0172275E3,2.567777E3,1.0340664E3,2.6375754E2,9.192957E0,1.4269006E3,3.4352167E2,7.1761646E2,1.3718048E2,5.131351E1,1.3096487E1,1.643176E3,8.747741E2,2.5377818E2,7.879605E1,9.188289E2,1.5199153E3,3.4890444E0,9.068901E1,4.53798E2,5.824577E2,1.006929E3,2.2396716E3,1.0096336E2,7.0940985E2,7.94463E2,1.7369062E3,3.4284732E2,4.977546E2,1.1231212E1,4.7295208E1,2.8919763E2,1.0958537E2,6.52387E2,5.894113E1,5.189794E2,4.038083E1,6.2642612E1,2.785615E2,3.9294937E2,5.4929414E0,7.092188E2,4.2849286E2,7.241884E0,6.804292E1,1.3039903E2,7.8363837E2,1.1123775E2,6.895765E1,2.9320682E2,4.8670944E2],"tree_param":{"num_deleted":"0","num_feature":"12","num_nodes":"125","size_leaf_vector":"1"}},{"base_weights":[3.389651E-3,1.6509944E-1,-4.2604136E-1,-1.0453411E-1,3.3338264E-1,-6.2185496E-1,-1.8931854E-1,-3.3854178E-1,7.179323E-2,1.4890644E-1,5.302202E-1,-5.018477E-1,-8.823611E-1,-9.126297E-2,-5.373267E-1,-2.2387382E-1,-5.195859E-1,-8.440442E-2,2.1849851E-1,2.4743879E-1,-3.236271E-2,6.3902056E-1,3.4052676E-1,-2.8508925E-1,-6.336575E-1,-1.0377481E0,-6.76376E-1,-4.776222E-1,1.7429924E-3,-7.022962E-1,-1.8670464E-1,-1.5865096E-1,-5.131687E-1,-6.622429E-1,-3.301454E-1,-1.4507358E-1,2.490986E-1,3.0357546E-1,-1.418795E-1,-1.4786657E-2,3.25217E-1,1.44785E-1,-1.8151249E-1,5.6619334E-1,8.773761E-1,1.302776E-1,5.39511E-1,-6.091584E-1,-1.3489108E-1,1.287739E-1,-6.8174714E-1,-7.406514E-1,-1.1629831E0,-3.4618825E-1,-8.2487917E-1,-6.7778933E-1,-2.3580062E-1,-1.0114005E-1,2.0701133E-1,-8.948388E-1,-1.7499496E-1,-4.542431E-1,1.8521473E-1,-1.2797202E-2,-1.401135E-3,4.6893097E-3,-3.17516E-2,-2.8969228E-2,-5.852727E-2,-4.2684052E-2,-1.125971E-2,1.0147023E-2,-9.71127E-3,-5.610776E-2,1.4608565E-2,1.0826193E-2,2.8533904E-2,3.262636E-2,-1.3387078E-2,-6.056024E-3,1.0327839E-2,2.6753498E-2,1.31162945E-2,-2.9272465E-3,1.4511311E-2,-1.5863236E-2,-4.7027195E-5,3.5660367E-2,2.3011137E-2,3.693947E-2,5.1835835E-2,1.1245574E-2,-1.795924E-2,2.0315362E-2,3.7127074E-2,-1.8014137E-2,-4.1094776E-2,-1.4315771E-2,5.3493413E-3,-3.287102E-2,2.0288218E-2,-3.6954068E-2,-1.8293105E-2,-2.163748E-2,-5.3830337E-2,-1.9992653E-2,-6.0166594E-2,-3.3083573E-2,-2.2919285E-3,-4.473373E-2,-9.066586E-3,-2.5577871E-2,-4.7870822E-2,-2.4212107E-2,3.705484E-3,-8.57818E-3,4.199083E-3,-1.6727898E-4,1.7619034E-2,-5.9186377E-2,-3.4685027E-2,7.621191E-3,-3.1708498E-2,-6.795814E-3,-3.514632E-2,1.8008228E-2,-2.7286965E-2],"categories":[],"categories_nodes":[],"categories_segments":[],"categories_sizes":[],"default_left":[0,0,0,0,0,0,0,0,0,0,0,0,0,0,0,0,0,0,0,0,0,0,0,0,0,0,0,0,0,0,0,0,0,0,0,0,0,0,0,0,0,0,0,0,0,0,0,0,0,0,0,0,0,0,0,0,0,0,0,0,0,0,0,0,0,0,0,0,0,0,0,0,0,0,0,0,0,0,0,0,0,0,0,0,0,0,0,0,0,0,0,0,0,0,0,0,0,0,0,0,0,0,0,0,0,0,0,0,0,0,0,0,0,0,0,0,0,0,0,0,0,0,0,0,0,0,0],"id":6,"left_children":[1,3,5,7,9,11,13,15,17,19,21,23,25,27,29,31,33,35,37,39,41,43,45,47,49,51,53,55,57,59,61,63,65,67,69,71,73,75,77,79,81,83,85,87,89,91,93,95,97,99,101,103,105,107,109,111,113,115,117,119,121,123,125,-1,-1,-1,-1,-1,-1,-1,-1,-1,-1,-1,-1,-1,-1,-1,-1,-1,-1,-1,-1,-1,-1,-1,-1,-1,-1,-1,-1,-1,-1,-1,-1,-1,-1,-1,-1,-1,-1,-1,-1,-1,-1,-1,-1,-1,-1,-1,-1,-1,-1,-1,-1,-1,-1,-1,-1,-1,-1,-1,-1,-1,-1,-1,-1],"loss_changes":[2.197279E3,1.0430061E3,4.0110352E2,3.6452133E2,5.1384143E2,1.4763965E2,1.3371587E2,7.8691986E1,1.1547727E2,1.3052235E2,1.4108911E2,9.253662E1,4.7071045E1,1.09938385E2,4.96994E1,4.3804955E1,3.9542694E1,4.942685E1,7.971303E1,9.655939E1,6.803925E1,7.501306E1,1.04425964E2,5.973719E1,7.4048584E1,3.0723572E1,3.1324707E1,2.8573029E1,5.211761E1,5.9286774E1,2.7647121E1,2.413308E1,3.1676926E1,3.4627594E1,3.4643425E1,3.5378925E1,2.254074E1,4.8764145E1,4.986439E1,2.5536512E1,4.804782E1,3.4829605E1,3.4267834E1,5.1624023E1,2.167456E1,5.639687E1,3.439438E1,2.0295456E1,3.083482E1,2.6513313E1,3.409839E1,2.585785E1,1.7852722E1,1.9083206E1,1.977832E1,1.458165E1,2.0852161E1,2.144602E1,2.5196888E1,2.4085632E1,2.3827976E1,1.2681431E1,1.5108113E1,0E0,0E0,0E0,0E0,0E0,0E0,0E0,0E0,0E0,0E0,0E0,0E0,0E0,0E0,0E0,0E0,0E0,0E0,0E0,0E0,0E0,0E0,0E0,0E0,0E0,0E0,0E0,0E0,0E0,0E0,0E0,0E0,0E0,0E0,0E0,0E0,0E0,0E0,0E0,0E0,0E0,0E0,0E0,0E0,0E0,0E0,0E0,0E0,0E0,0E0,0E0,0E0,0E0,0E0,0E0,0E0,0E0,0E0,0E0,0E0,0E0,0E0,0E0,0E0],"parents":[2147483647,0,0,1,1,2,2,3,3,4,4,5,5,6,6,7,7,8,8,9,9,10,10,11,11,12,12,13,13,14,14,15,15,16,16,17,17,18,18,19,19,20,20,21,21,22,22,23,23,24,24,25,25,26,26,27,27,28,28,29,29,30,30,31,31,32,32,33,33,34,34,35,35,36,36,37,37,38,38,39,39,40,40,41,41,42,42,43,43,44,44,45,45,46,46,47,47,48,48,49,49,50,50,51,51,52,52,53,53,54,54,55,55,56,56,57,57,58,58,59,59,60,60,61,61,62,62],"right_children":[2,4,6,8,10,12,14,16,18,20,22,24,26,28,30,32,34,36,38,40,42,44,46,48,50,52,54,56,58,60,62,64,66,68,70,72,74,76,78,80,82,84,86,88,90,92,94,96,98,100,102,104,106,108,110,112,114,116,118,120,122,124,126,-1,-1,-1,-1,-1,-1,-1,-1,-1,-1,-1,-1,-1,-1,-1,-1,-1,-1,-1,-1,-1,-1,-1,-1,-1,-1,-1,-1,-1,-1,-1,-1,-1,-1,-1,-1,-1,-1,-1,-1,-1,-1,-1,-1,-1,-1,-1,-1,-1,-1,-1,-1,-1,-1,-1,-1,-1,-1,-1,-1,-1,-1,-1,-1],"split_conditions":[7.05E2,4.0086E0,2.005E-1,1.714E-1,2.023E-1,7.4E2,7.4E2,7E0,1E0,6.85E2,6.85E2,3.36E-1,4.234264E0,3.9242792E0,1E0,6.9E2,1E0,3.306E-1,6.9E2,9.86E-2,3.5E1,3.168E-1,2.684E-1,3.9822712E0,5E-1,1.14E-1,3.5E1,2.774E-1,1E0,2.97E-1,4.20412E0,3.867762E0,5E-1,4.5E1,6.72E-2,3.1E1,2.13E-1,3.005E-1,5E-1,4.304275E0,6.65E2,4.20412E0,1.509E-1,6.7E2,1E0,4.4E1,1E0,1E1,1E0,1.09E-1,4.462398E0,7.8E2,2.95E-2,1.227E-1,2.1E1,7.2E2,1E0,3.026E-1,2.541E-1,2.328E-1,2.9E-1,3.3E1,4.2E1,-1.2797202E-2,-1.401135E-3,4.6893097E-3,-3.17516E-2,-2.8969228E-2,-5.852727E-2,-4.2684052E-2,-1.125971E-2,1.0147023E-2,-9.71127E-3,-5.610776E-2,1.4608565E-2,1.0826193E-2,2.8533904E-2,3.262636E-2,-1.3387078E-2,-6.056024E-3,1.0327839E-2,2.6753498E-2,1.31162945E-2,-2.9272465E-3,1.4511311E-2,-1.5863236E-2,-4.7027195E-5,3.5660367E-2,2.3011137E-2,3.693947E-2,5.1835835E-2,1.1245574E-2,-1.795924E-2,2.0315362E-2,3.7127074E-2,-1.8014137E-2,-4.1094776E-2,-1.4315771E-2,5.3493413E-3,-3.287102E-2,2.0288218E-2,-3.6954068E-2,-1.8293105E-2,-2.163748E-2,-5.3830337E-2,-1.9992653E-2,-6.0166594E-2,-3.3083573E-2,-2.2919285E-3,-4.473373E-2,-9.066586E-3,-2.5577871E-2,-4.7870822E-2,-2.4212107E-2,3.705484E-3,-8.57818E-3,4.199083E-3,-1.6727898E-4,1.7619034E-2,-5.9186377E-2,-3.4685027E-2,7.621191E-3,-3.1708498E-2,-6.795814E-3,-3.514632E-2,1.8008228E-2,-2.7286965E-2],"split_indices":[0,8,1,1,1,0,0,7,11,0,0,2,8,8,11,0,11,1,0,1,5,1,1,8,7,2,5,1,11,1,8,8,7,5,1,5,2,1,7,8,0,8,1,0,11,5,11,4,11,1,8,0,1,1,4,0,11,1,1,1,2,5,5,0,0,0,0,0,0,0,0,0,0,0,0,0,0,0,0,0,0,0,0,0,0,0,0,0,0,0,0,0,0,0,0,0,0,0,0,0,0,0,0,0,0,0,0,0,0,0,0,0,0,0,0,0,0,0,0,0,0,0,0,0,0,0,0],"split_type":[0,0,0,0,0,0,0,0,0,0,0,0,0,0,0,0,0,0,0,0,0,0,0,0,0,0,0,0,0,0,0,0,0,0,0,0,0,0,0,0,0,0,0,0,0,0,0,0,0,0,0,0,0,0,0,0,0,0,0,0,0,0,0,0,0,0,0,0,0,0,0,0,0,0,0,0,0,0,0,0,0,0,0,0,0,0,0,0,0,0,0,0,0,0,0,0,0,0,0,0,0,0,0,0,0,0,0,0,0,0,0,0,0,0,0,0,0,0,0,0,0,0,0,0,0,0,0],"sum_hessian":[3.1639373E4,2.2984695E4,8.654676E3,8.832733E3,1.4151963E4,4.7357266E3,3.9189495E3,3.7951677E3,5.0375654E3,7.3062764E3,6.8456865E3,3.2441653E3,1.4915614E3,3.0584546E3,8.604949E2,2.324889E3,1.4702788E3,2.440055E3,2.5975105E3,4.733128E3,2.5731484E3,4.348944E3,2.4967427E3,1.2279652E3,2.0162E3,8.479007E2,6.4366064E2,5.92596E2,2.4658586E3,5.8448755E2,2.7600735E2,1.8984279E3,4.2646094E2,8.372769E2,6.3300183E2,2.064971E3,3.7508392E2,2.1015425E3,4.9596808E2,1.0829214E3,3.6502065E3,1.1761932E3,1.3969553E3,3.3337305E3,1.0152134E3,1.2148123E3,1.2819304E3,3.87923E2,8.400423E2,1.1952515E2,1.8966748E3,2.5348007E2,5.9442065E2,2.0071477E2,4.429459E2,3.2323572E2,2.693603E2,1.642916E3,8.229427E2,4.276392E2,1.5684833E2,1.6040175E2,1.156056E2,1.0874938E3,8.1093414E2,7.134566E1,3.551153E2,7.2176245E2,1.155145E2,1.04513824E2,5.28488E2,2.551662E2,1.8098048E3,1.0660054E1,3.644239E2,1.586346E3,5.151965E2,6.725959E1,4.287085E2,7.318108E2,3.5111057E2,8.399576E2,2.810249E3,4.9073404E2,6.8545917E2,7.970123E2,5.99943E2,1.3940383E3,1.9396921E3,5.459816E2,4.6923178E2,1.0184442E3,1.96368E2,7.758884E2,5.0604202E2,1.8001807E2,2.0790492E2,5.1650665E2,3.235356E2,3.0781944E1,8.87432E1,1.6041725E3,2.9250226E2,1.3345613E2,1.20023926E2,3.0398201E1,5.640224E2,9.730447E1,1.0341029E2,3.992548E2,4.3691093E1,2.044966E2,1.1873911E2,1.4919481E2,1.2016547E2,1.1902118E3,4.5270422E2,3.3669897E2,4.862437E2,1.7352518E2,2.5411401E2,9.195036E1,6.489797E1,7.102841E1,8.937334E1,9.3688934E1,2.1916664E1],"tree_param":{"num_deleted":"0","num_feature":"12","num_nodes":"127","size_leaf_vector":"1"}},{"base_weights":[9.1084867E-4,1.571695E-1,-4.2269865E-1,-1.3267921E-1,2.7847037E-1,-5.62226E-1,-1.23792134E-1,-3.2242543E-1,4.6067018E-2,1.0232204E-1,4.7136617E-1,-4.0321803E-1,-7.828313E-1,-4.6461397E-1,-1.8669883E-2,-2.6959312E-1,-5.5187714E-1,-1.1833885E-1,1.9878954E-1,2.2082455E-1,-3.67227E-2,5.785085E-1,2.7780062E-1,9.720273E-3,-4.6420664E-1,-7.0887667E-1,-1.0981978E0,-5.883106E-1,-1.4293331E-1,-1.5223736E-1,2.5293434E-1,-3.1450903E-1,1.0190858E-1,-6.406151E-1,-3.6947525E-1,-1.8047124E-1,1.650347E-1,2.5372854E-1,-2.3463036E-1,7.411285E-2,3.2500827E-1,-2.4041012E-1,5.5303883E-2,4.5978674E-1,6.84858E-1,7.530483E-2,4.7085133E-1,-3.542584E-1,1.8108013E-1,-7.153399E-1,-3.9573213E-1,-3.7131238E-1,-8.4436727E-1,-1.195364E0,-2.993565E-1,-5.095369E-1,-1.0285752E0,-4.842994E-1,2.983716E-1,-2.7204308E-1,4.716685E-2,8.5022524E-2,5.5931634E-1,-2.6624803E-2,-8.769571E-3,3.5621494E-2,-6.874675E-5,-2.6915027E-2,-4.7438182E-2,-5.166758E-2,-1.493822E-2,3.998342E-3,-1.15227625E-2,1.8343013E-2,-1.275435E-2,7.3842756E-3,2.3307731E-2,-3.648885E-2,-6.1350537E-4,9.294175E-3,-3.0657656E-3,2.1359954E-2,1.1348531E-2,-2.1835856E-2,-1.94404E-3,8.222776E-3,-4.8932633E-3,1.9229293E-2,3.0697873E-2,3.0178433E-2,4.239167E-2,7.4271658E-3,-1.7057275E-2,1.8039681E-2,3.164604E-2,-3.0730858E-2,8.372037E-3,-2.880792E-4,2.0290632E-2,-4.5088463E-2,-2.5347853E-2,-2.8417254E-2,-1.6029632E-2,-3.2799236E-2,-2.8632327E-3,-4.887121E-2,-3.4854513E-2,-4.6527706E-2,-6.692486E-2,-7.7485494E-2,-6.214936E-3,-1.1480999E-2,-3.6217455E-2,-2.8679669E-2,-6.879658E-2,-3.381535E-2,1.0492831E-2,1.9921925E-2,-3.4037102E-2,-8.410789E-3,-3.191739E-2,-3.375694E-3,1.3166196E-2,9.1638E-3,-1.2205837E-2,3.5523366E-2,1.0319047E-2],"categories":[],"categories_nodes":[],"categories_segments":[],"categories_sizes":[],"default_left":[0,0,0,0,0,0,0,0,0,0,0,0,0,0,0,0,0,0,0,0,0,0,0,0,0,0,0,0,0,0,0,0,0,0,0,0,0,0,0,0,0,0,0,0,0,0,0,0,0,0,0,0,0,0,0,0,0,0,0,0,0,0,0,0,0,0,0,0,0,0,0,0,0,0,0,0,0,0,0,0,0,0,0,0,0,0,0,0,0,0,0,0,0,0,0,0,0,0,0,0,0,0,0,0,0,0,0,0,0,0,0,0,0,0,0,0,0,0,0,0,0,0,0,0,0,0,0],"id":7,"left_children":[1,3,5,7,9,11,13,15,17,19,21,23,25,27,29,31,33,35,37,39,41,43,45,47,49,51,53,55,57,59,61,63,65,67,69,71,73,75,77,79,81,83,85,87,89,91,93,95,97,99,101,103,105,107,109,111,113,115,117,119,121,123,125,-1,-1,-1,-1,-1,-1,-1,-1,-1,-1,-1,-1,-1,-1,-1,-1,-1,-1,-1,-1,-1,-1,-1,-1,-1,-1,-1,-1,-1,-1,-1,-1,-1,-1,-1,-1,-1,-1,-1,-1,-1,-1,-1,-1,-1,-1,-1,-1,-1,-1,-1,-1,-1,-1,-1,-1,-1,-1,-1,-1,-1,-1,-1,-1],"loss_changes":[2.0926013E3,8.1202264E2,3.5522314E2,2.3113104E2,5.531675E2,2.0340576E2,9.717073E1,3.99227E1,8.8147385E1,1.4025233E2,1.6100293E2,8.505481E1,5.5932983E1,2.5356125E1,7.527952E1,4.4899048E1,9.761597E0,2.9799826E1,4.3394043E1,7.0214966E1,7.343865E1,6.28313E1,1.08278244E2,2.7231153E1,5.0316956E1,8.990253E1,3.5353577E1,1.5479874E1,2.7093681E1,3.3242176E1,3.5145912E1,7.266023E1,1.8336714E1,1.2547821E1,9.292416E0,1.8077316E1,2.5919832E1,3.632544E1,2.258944E1,2.8915035E1,2.6821045E1,4.821672E1,4.5138607E1,2.7197327E1,3.4411133E1,4.1332085E1,2.5069153E1,1.9086666E1,1.2465069E1,2.3985748E1,2.9834808E1,5.062964E1,2.6886047E1,1.42890625E1,1.1020044E1,2.3488983E1,1.0124008E1,1.3636522E1,7.9763937E0,3.2944458E1,1.2979993E1,1.4373822E1,1.2763664E1,0E0,0E0,0E0,0E0,0E0,0E0,0E0,0E0,0E0,0E0,0E0,0E0,0E0,0E0,0E0,0E0,0E0,0E0,0E0,0E0,0E0,0E0,0E0,0E0,0E0,0E0,0E0,0E0,0E0,0E0,0E0,0E0,0E0,0E0,0E0,0E0,0E0,0E0,0E0,0E0,0E0,0E0,0E0,0E0,0E0,0E0,0E0,0E0,0E0,0E0,0E0,0E0,0E0,0E0,0E0,0E0,0E0,0E0,0E0,0E0,0E0,0E0,0E0,0E0],"parents":[2147483647,0,0,1,1,2,2,3,3,4,4,5,5,6,6,7,7,8,8,9,9,10,10,11,11,12,12,13,13,14,14,15,15,16,16,17,17,18,18,19,19,20,20,21,21,22,22,23,23,24,24,25,25,26,26,27,27,28,28,29,29,30,30,31,31,32,32,33,33,34,34,35,35,36,36,37,37,38,38,39,39,40,40,41,41,42,42,43,43,44,44,45,45,46,46,47,47,48,48,49,49,50,50,51,51,52,52,53,53,54,54,55,55,56,56,57,57,58,58,59,59,60,60,61,61,62,62],"right_children":[2,4,6,8,10,12,14,16,18,20,22,24,26,28,30,32,34,36,38,40,42,44,46,48,50,52,54,56,58,60,62,64,66,68,70,72,74,76,78,80,82,84,86,88,90,92,94,96,98,100,102,104,106,108,110,112,114,116,118,120,122,124,126,-1,-1,-1,-1,-1,-1,-1,-1,-1,-1,-1,-1,-1,-1,-1,-1,-1,-1,-1,-1,-1,-1,-1,-1,-1,-1,-1,-1,-1,-1,-1,-1,-1,-1,-1,-1,-1,-1,-1,-1,-1,-1,-1,-1,-1,-1,-1,-1,-1,-1,-1,-1,-1,-1,-1,-1,-1,-1,-1,-1,-1,-1,-1,-1],"split_conditions":[7.05E2,3.961421E0,2.35E-1,1.85E-1,2.023E-1,7.3E2,3.9956353E0,6.9E2,1E0,6.8E2,6.85E2,2E-1,7.8E2,3.256E-1,1E0,1E0,1.482E-1,3.306E-1,6.95E2,1.258E-1,1.135E-1,4.1910315E0,2.684E-1,3.9242792E0,3.961421E0,1.84E-1,4.462398E0,7.5E2,1E0,3.026E-1,4.3222194E0,1E0,3E1,1.237E-1,6E0,6.65E2,3.9E1,2.884E-1,2.328E-1,3.6E1,3.5E1,4.234264E0,3.7E1,2.97E-1,2.934E-1,4.5E1,1E0,1.61E-1,1E0,1E0,1.258E-1,4.120574E0,4.243038E0,8E-2,7.85E2,3.42E-1,1.1E1,6.87E-1,2E1,4.5E1,4.357935E0,7.35E2,7.3E2,-2.6624803E-2,-8.769571E-3,3.5621494E-2,-6.874675E-5,-2.6915027E-2,-4.7438182E-2,-5.166758E-2,-1.493822E-2,3.998342E-3,-1.15227625E-2,1.8343013E-2,-1.275435E-2,7.3842756E-3,2.3307731E-2,-3.648885E-2,-6.1350537E-4,9.294175E-3,-3.0657656E-3,2.1359954E-2,1.1348531E-2,-2.1835856E-2,-1.94404E-3,8.222776E-3,-4.8932633E-3,1.9229293E-2,3.0697873E-2,3.0178433E-2,4.239167E-2,7.4271658E-3,-1.7057275E-2,1.8039681E-2,3.164604E-2,-3.0730858E-2,8.372037E-3,-2.880792E-4,2.0290632E-2,-4.5088463E-2,-2.5347853E-2,-2.8417254E-2,-1.6029632E-2,-3.2799236E-2,-2.8632327E-3,-4.887121E-2,-3.4854513E-2,-4.6527706E-2,-6.692486E-2,-7.7485494E-2,-6.214936E-3,-1.1480999E-2,-3.6217455E-2,-2.8679669E-2,-6.879658E-2,-3.381535E-2,1.0492831E-2,1.9921925E-2,-3.4037102E-2,-8.410789E-3,-3.191739E-2,-3.375694E-3,1.3166196E-2,9.1638E-3,-1.2205837E-2,3.5523366E-2,1.0319047E-2],"split_indices":[0,8,1,1,1,0,8,0,11,0,0,2,0,1,11,10,1,1,0,1,1,8,1,8,8,2,8,0,11,1,8,11,5,1,4,0,5,1,1,5,5,8,5,1,1,5,11,2,11,11,1,8,8,2,0,2,4,2,4,5,8,0,0,0,0,0,0,0,0,0,0,0,0,0,0,0,0,0,0,0,0,0,0,0,0,0,0,0,0,0,0,0,0,0,0,0,0,0,0,0,0,0,0,0,0,0,0,0,0,0,0,0,0,0,0,0,0,0,0,0,0,0,0,0,0,0,0],"split_type":[0,0,0,0,0,0,0,0,0,0,0,0,0,0,0,0,0,0,0,0,0,0,0,0,0,0,0,0,0,0,0,0,0,0,0,0,0,0,0,0,0,0,0,0,0,0,0,0,0,0,0,0,0,0,0,0,0,0,0,0,0,0,0,0,0,0,0,0,0,0,0,0,0,0,0,0,0,0,0,0,0,0,0,0,0,0,0,0,0,0,0,0,0,0,0,0,0,0,0,0,0,0,0,0,0,0,0,0,0,0,0,0,0,0,0,0,0,0,0,0,0,0,0,0,0,0,0],"sum_hessian":[3.1611797E4,2.3093738E4,8.518059E3,6.8132847E3,1.6280454E4,5.806668E3,2.7113904E3,3.3045596E3,3.508725E3,8.510436E3,7.7700186E3,3.3760828E3,2.4305852E3,6.38349E2,2.0730413E3,2.6878457E3,6.16714E2,1.6898384E3,1.8188867E3,4.594301E3,3.9161348E3,5.0002773E3,2.7697412E3,4.345688E2,2.941514E3,1.9715072E3,4.5907812E2,4.6045883E2,1.7789015E2,1.3899445E3,6.8309686E2,2.3980642E3,2.8978134E2,4.131874E2,2.035266E2,1.3862523E3,3.035861E2,1.6146351E3,2.0425165E2,1.908483E3,2.6858179E3,1.2182045E3,2.6979302E3,2.3652207E3,2.6350566E3,1.3524803E3,1.4172609E3,1.3876219E2,2.9580658E2,6.281819E2,2.313332E3,5.657429E2,1.4057643E3,4.088516E2,5.0226536E1,3.924056E2,6.805324E1,1.002475E2,7.764266E1,8.680435E2,5.219009E2,4.420888E2,2.4100807E2,9.331148E2,1.4649495E3,4.107634E1,2.4870499E2,3.1225592E2,1.009315E2,1.8280876E1,1.8524571E2,2.2311705E2,1.1631353E3,2.0515623E2,9.842984E1,1.0781288E3,5.365063E2,6.2591778E1,1.4165987E2,1.0453606E3,8.6312244E2,1.3134104E3,1.3724073E3,6.1650665E2,6.016979E2,1.5752788E3,1.1226515E3,1.5921174E3,7.731033E2,1.761269E3,8.737877E2,1.1507488E3,2.0173158E2,8.459925E2,5.712684E2,9.2447365E1,4.6314827E1,1.6205176E2,1.3375484E2,3.297997E2,2.9838217E2,6.996076E2,1.6137245E3,2.9617905E2,2.6956384E2,7.355749E2,6.7018933E2,1.460839E2,2.627677E2,5.2040377E0,4.50225E1,1.712815E2,2.2112411E2,3.0610126E1,3.7443108E1,7.854672E1,2.170077E1,7.098132E1,6.661336E0,6.774756E2,1.9056798E2,3.4143988E2,1.8046104E2,3.4079813E2,1.01290665E2,1.6803221E2,7.297585E1],"tree_param":{"num_deleted":"0","num_feature":"12","num_nodes":"127","size_leaf_vector":"1"}},{"base_weights":[4.1085645E-3,1.4601274E-1,-3.724425E-1,-9.441263E-2,2.9708442E-1,-2.4383402E-1,-6.4346653E-1,1.6044985E-1,-1.9923137E-1,4.0293664E-1,7.325379E-2,-1.0341746E-1,-4.0947908E-1,-5.4725224E-1,-1.0280529E0,2.3625316E-1,-1.3942209E-1,-9.4094865E-2,-3.390874E-1,4.8759052E-1,2.4111737E-1,-1.01972856E-1,1.9970612E-1,-3.9896175E-1,4.156759E-2,-5.3212374E-1,-1.775382E-2,-2.247853E-1,-7.023233E-1,-1.1033574E0,-3.800766E-1,1.5261215E-1,3.744702E-1,-4.7653335E-1,8.309048E-3,-2.0500216E-1,2.6337115E-2,-4.697095E-1,-2.17041E-1,3.6444846E-1,6.023007E-1,1.3986559E-1,3.72194E-1,9.629899E-2,-2.4562974E-1,3.0690968E-1,4.885681E-2,1.0053154E-1,-4.666698E-1,2.4791515E-1,-3.845567E-2,-8.8282335E-1,-4.781956E-1,-1.4628766E-1,3.6876512E-1,-3.6305326E-1,2.7727056E-1,-9.8332316E-1,-5.321494E-1,-6.370622E-1,-1.2421901E0,-7.74948E-2,-2.0996025E-1,3.262027E-4,1.1699517E-2,2.1942666E-2,7.248357E-3,-3.0386189E-2,-1.5105278E-3,1.3138816E-2,-1.4444617E-2,-2.0859567E-2,-5.4962626E-3,5.5423505E-3,-9.284764E-3,-1.49586545E-2,-3.0787736E-2,4.4019255E-3,-1.5362511E-2,2.5246775E-2,7.963653E-3,3.50614E-2,2.4219796E-2,1.1964132E-2,-2.2034459E-3,2.9964612E-3,2.2254441E-2,7.37909E-3,-2.0274404E-2,-2.5235934E-2,-7.055664E-3,2.878125E-2,1.2197471E-2,7.34867E-3,-1.6534703E-2,1.1005781E-2,-5.4652043E-2,-1.7044734E-2,-3.1008556E-2,2.2420034E-2,1.3253337E-3,-6.808843E-3,1.1725339E-2,-3.9588057E-2,-6.1586272E-2,-1.8762354E-2,-3.31493E-2,-4.5942827E-3,-6.2949084E-2,4.1772872E-2,6.3624196E-3,-1.3622277E-3,-3.160843E-2,2.5054842E-2,-1.6632693E-2,-3.3055585E-2,-5.784576E-2,-1.1057934E-2,-3.9662752E-2,-5.726554E-2,-1.086814E-2,-6.2877335E-2,2.3282824E-2,1.0502855E-2,-5.2458145E-2],"categories":[],"categories_nodes":[],"categories_segments":[],"categories_sizes":[],"default_left":[0,0,0,0,0,0,0,0,0,0,0,0,0,0,0,0,0,0,0,0,0,0,0,0,0,0,0,0,0,0,0,0,0,0,0,0,0,0,0,0,0,0,0,0,0,0,0,0,0,0,0,0,0,0,0,0,0,0,0,0,0,0,0,0,0,0,0,0,0,0,0,0,0,0,0,0,0,0,0,0,0,0,0,0,0,0,0,0,0,0,0,0,0,0,0,0,0,0,0,0,0,0,0,0,0,0,0,0,0,0,0,0,0,0,0,0,0,0,0,0,0,0,0,0,0],"id":8,"left_children":[1,3,5,7,9,11,13,15,17,19,21,23,25,27,29,31,33,35,37,39,41,43,45,47,49,51,53,55,57,59,61,63,65,67,69,71,73,75,77,79,81,83,85,87,89,91,93,95,97,99,101,103,105,107,109,111,113,115,117,119,121,-1,123,-1,-1,-1,-1,-1,-1,-1,-1,-1,-1,-1,-1,-1,-1,-1,-1,-1,-1,-1,-1,-1,-1,-1,-1,-1,-1,-1,-1,-1,-1,-1,-1,-1,-1,-1,-1,-1,-1,-1,-1,-1,-1,-1,-1,-1,-1,-1,-1,-1,-1,-1,-1,-1,-1,-1,-1,-1,-1,-1,-1,-1,-1],"loss_changes":[1.69211E3,8.3541E2,3.0195728E2,2.3714658E2,3.3462805E2,1.3671677E2,1.0262805E2,5.884297E1,9.245216E1,1.3124487E2,1.0053483E2,1.3643013E2,1.2957263E2,1.1149457E2,2.6755981E1,2.382151E1,2.603379E1,4.7982063E1,4.2922302E1,8.869983E1,4.3686035E1,5.4201546E1,4.2600258E1,3.5484924E1,3.529202E1,3.8425415E1,3.2055717E1,5.053529E1,7.155316E1,3.1474426E1,1.1517316E1,1.5316666E1,1.1432449E1,9.307636E0,2.7634338E1,3.7680534E1,3.0893103E1,3.2261932E1,3.847554E1,8.7499756E1,3.7655396E1,3.403985E1,3.2652435E1,2.064276E1,2.9803528E1,2.5918259E1,4.0861458E1,1.8211569E1,1.7607529E1,2.6497887E1,4.1123234E1,7.6851196E0,3.366095E1,2.9189087E1,1.8044502E1,5.150184E1,2.1661373E1,3.09682E1,7.62305E1,2.4580997E1,1.0630737E1,0E0,1.8940945E1,0E0,0E0,0E0,0E0,0E0,0E0,0E0,0E0,0E0,0E0,0E0,0E0,0E0,0E0,0E0,0E0,0E0,0E0,0E0,0E0,0E0,0E0,0E0,0E0,0E0,0E0,0E0,0E0,0E0,0E0,0E0,0E0,0E0,0E0,0E0,0E0,0E0,0E0,0E0,0E0,0E0,0E0,0E0,0E0,0E0,0E0,0E0,0E0,0E0,0E0,0E0,0E0,0E0,0E0,0E0,0E0,0E0,0E0,0E0,0E0,0E0,0E0],"parents":[2147483647,0,0,1,1,2,2,3,3,4,4,5,5,6,6,7,7,8,8,9,9,10,10,11,11,12,12,13,13,14,14,15,15,16,16,17,17,18,18,19,19,20,20,21,21,22,22,23,23,24,24,25,25,26,26,27,27,28,28,29,29,30,30,31,31,32,32,33,33,34,34,35,35,36,36,37,37,38,38,39,39,40,40,41,41,42,42,43,43,44,44,45,45,46,46,47,47,48,48,49,49,50,50,51,51,52,52,53,53,54,54,55,55,56,56,57,57,58,58,59,59,60,60,62,62],"right_children":[2,4,6,8,10,12,14,16,18,20,22,24,26,28,30,32,34,36,38,40,42,44,46,48,50,52,54,56,58,60,62,64,66,68,70,72,74,76,78,80,82,84,86,88,90,92,94,96,98,100,102,104,106,108,110,112,114,116,118,120,122,-1,124,-1,-1,-1,-1,-1,-1,-1,-1,-1,-1,-1,-1,-1,-1,-1,-1,-1,-1,-1,-1,-1,-1,-1,-1,-1,-1,-1,-1,-1,-1,-1,-1,-1,-1,-1,-1,-1,-1,-1,-1,-1,-1,-1,-1,-1,-1,-1,-1,-1,-1,-1,-1,-1,-1,-1,-1,-1,-1,-1,-1,-1,-1],"split_conditions":[7.05E2,4.0086E0,7.35E2,4.5682015E0,4.942008E0,4.8512583E0,7.8E2,6.9E2,1E0,6.85E2,4.3222194E0,3.961421E0,4.462398E0,2E-1,4.462398E0,3.8573325E0,3.1E1,3.867762E0,3.8573325E0,4.1910315E0,1E0,6.75E2,3.9E1,4.3802114E0,4.6532125E0,3.929419E0,1E0,4.3424225E0,4.153815E0,4.69897E0,7.85E2,1E0,6.8E2,4.518514E0,4.4771214E0,4.09E-1,6.85E2,6.75E2,4.6946054E0,4.744293E0,1E0,4.845098E0,3.1E1,8.88E-1,4.176091E0,4.37E-1,5.2304487E0,1E0,3.86E-1,7.15E2,4.304275E0,7.25E2,5.041393E0,5.454845E0,3.8E-1,4.70757E0,5.1003704E0,4.662758E0,4.913814E0,3.929419E0,6.8E1,-7.74948E-2,8.05E2,3.262027E-4,1.1699517E-2,2.1942666E-2,7.248357E-3,-3.0386189E-2,-1.5105278E-3,1.3138816E-2,-1.4444617E-2,-2.0859567E-2,-5.4962626E-3,5.5423505E-3,-9.284764E-3,-1.49586545E-2,-3.0787736E-2,4.4019255E-3,-1.5362511E-2,2.5246775E-2,7.963653E-3,3.50614E-2,2.4219796E-2,1.1964132E-2,-2.2034459E-3,2.9964612E-3,2.2254441E-2,7.37909E-3,-2.0274404E-2,-2.5235934E-2,-7.055664E-3,2.878125E-2,1.2197471E-2,7.34867E-3,-1.6534703E-2,1.1005781E-2,-5.4652043E-2,-1.7044734E-2,-3.1008556E-2,2.2420034E-2,1.3253337E-3,-6.808843E-3,1.1725339E-2,-3.9588057E-2,-6.1586272E-2,-1.8762354E-2,-3.31493E-2,-4.5942827E-3,-6.2949084E-2,4.1772872E-2,6.3624196E-3,-1.3622277E-3,-3.160843E-2,2.5054842E-2,-1.6632693E-2,-3.3055585E-2,-5.784576E-2,-1.1057934E-2,-3.9662752E-2,-5.726554E-2,-1.086814E-2,-6.2877335E-2,2.3282824E-2,1.0502855E-2,-5.2458145E-2],"split_indices":[0,8,0,6,6,6,0,0,9,0,8,8,8,2,8,8,5,8,8,8,11,0,5,6,6,8,11,8,8,6,0,11,0,6,6,2,0,0,6,6,9,6,5,2,8,2,6,9,2,0,8,0,6,6,2,6,6,6,6,8,5,0,0,0,0,0,0,0,0,0,0,0,0,0,0,0,0,0,0,0,0,0,0,0,0,0,0,0,0,0,0,0,0,0,0,0,0,0,0,0,0,0,0,0,0,0,0,0,0,0,0,0,0,0,0,0,0,0,0,0,0,0,0,0,0],"split_type":[0,0,0,0,0,0,0,0,0,0,0,0,0,0,0,0,0,0,0,0,0,0,0,0,0,0,0,0,0,0,0,0,0,0,0,0,0,0,0,0,0,0,0,0,0,0,0,0,0,0,0,0,0,0,0,0,0,0,0,0,0,0,0,0,0,0,0,0,0,0,0,0,0,0,0,0,0,0,0,0,0,0,0,0,0,0,0,0,0,0,0,0,0,0,0,0,0,0,0,0,0,0,0,0,0,0,0,0,0,0,0,0,0,0,0,0,0,0,0,0,0,0,0,0,0],"sum_hessian":[3.1665174E4,2.2998678E4,8.666495E3,8.874922E3,1.4123757E4,5.8787593E3,2.787736E3,2.5861858E3,6.288736E3,9.588458E3,4.5352983E3,3.1825503E3,2.696209E3,2.2318132E3,5.5592285E2,2.0645178E3,5.2166815E2,3.5909321E3,2.697804E3,6.293877E3,3.2945815E3,1.9011053E3,2.6341929E3,1.0468502E3,2.1357E3,2.0530608E3,6.4314813E2,7.255328E2,1.5062805E3,4.9741327E2,5.8509598E1,1.2875006E3,7.770171E2,1.5827374E2,3.6339438E2,1.8690233E3,1.7219088E3,1.3017435E3,1.3960604E3,3.037394E3,3.256483E3,1.8599257E3,1.4346559E3,7.988631E2,1.1022423E3,1.5392585E3,1.0949343E3,1.2490689E2,9.219433E2,5.962122E2,1.5394878E3,2.7158014E2,1.7814807E3,4.831139E2,1.6003423E2,5.6908234E2,1.5645045E2,5.6633734E2,9.399432E2,1.154022E2,3.8201108E2,6.3985596E0,5.211104E1,4.6100183E2,8.2649884E2,6.060797E2,1.7093736E2,1.2204011E2,3.623364E1,1.9583447E2,1.6755992E2,5.772809E2,1.2917424E3,1.2315331E3,4.9037576E2,6.019259E2,6.998176E2,3.1860184E2,1.0774585E3,1.8020435E3,1.2353506E3,1.7680577E3,1.4884253E3,1.2071547E3,6.5277094E2,2.7186597E2,1.1627898E3,7.254298E2,7.343329E1,3.1573315E2,7.8650916E2,2.9064386E2,1.2486147E3,8.7051324E2,2.2442108E2,1.14273415E2,1.0633477E1,5.085066E2,4.134367E2,3.1235202E2,2.838602E2,1.1340105E3,4.054773E2,2.1796208E2,5.3618057E1,1.1460406E3,6.3544E2,4.6162656E2,2.148734E1,5.3736954E1,1.06297264E2,2.5366016E2,3.1542218E2,1.1458074E2,4.186971E1,1.9997112E2,3.6636624E2,4.298345E2,5.101087E2,5.1413036E1,6.398916E1,3.7886804E2,3.1430275E0,3.5228844E1,1.6882193E1],"tree_param":{"num_deleted":"0","num_feature":"12","num_nodes":"125","size_leaf_vector":"1"}},{"base_weights":[1.6095794E-3,1.23272106E-1,-4.1295907E-1,-9.988068E-2,2.6121926E-1,-5.45473E-1,-1.3648488E-1,-2.7814156E-1,6.2339965E-2,9.036737E-2,4.4062623E-1,-4.5520487E-1,-8.696829E-1,-4.4355553E-1,-4.0222775E-2,-1.8899843E-1,-4.783506E-1,1.5719701E-1,-1.21630885E-1,1.882551E-1,-1.3562723E-1,5.679605E-1,2.541384E-1,-9.811579E-2,-5.2631927E-1,-9.9154735E-1,-5.6496036E-1,-2.4033114E-1,-7.0477563E-1,-1.6269714E-1,1.8230756E-1,-3.1372234E-1,-6.989124E-2,-1.671168E-1,-5.639284E-1,1.3976208E-2,2.8683594E-1,2.3749481E-1,-2.055989E-1,3.5768187E-1,9.18848E-2,4.2899407E-2,-2.7763695E-1,4.9046588E-1,7.8521127E-1,7.576669E-2,4.1929775E-1,-4.5209378E-1,1.5203232E-1,-7.0418286E-1,-4.1179562E-1,-1.0728097E0,-2.4818319E-1,-6.498253E-1,3.368892E-1,-6.753491E-1,-1.1169326E-1,-5.8649415E-1,-1.2393991E0,-2.5220034E-1,4.15572E-2,1.3880447E-1,7.049072E-1,-3.1090665E-3,-2.1560958E-2,-2.7663722E-3,-6.266346E-2,-3.5049316E-2,-1.0858332E-3,-3.501223E-2,-2.1548474E-2,7.4351886E-3,-8.008677E-3,2.1839319E-2,8.96332E-3,-2.239257E-2,1.5006107E-2,-2.0916004E-2,-4.46641E-3,1.3802706E-2,2.6587684E-2,1.7287534E-2,1.3231813E-3,2.4028039E-2,-1.2592026E-3,-2.6606519E-2,-4.6994486E-3,1.7750945E-2,2.880681E-2,3.4372654E-2,4.50439E-2,3.888503E-2,9.1863703E-4,1.3962375E-2,3.1528935E-2,1.5799778E-3,-3.706024E-2,4.471309E-2,5.6701264E-4,-2.0204443E-2,-4.2681225E-2,-4.8204544E-3,-2.866952E-2,-4.73259E-3,-5.4965306E-2,-2.449705E-3,-6.386217E-2,-1.2784647E-2,-3.9723333E-2,3.271431E-2,-7.015156E-2,3.0218596E-2,-4.3954324E-2,-3.234027E-2,1.7296972E-3,-3.4614403E-2,1.0701422E-2,-8.261469E-2,-3.1243583E-2,-1.1241871E-2,-5.4374795E-2,-5.3927646E-4,5.5758882E-2,6.0717906E-3,6.331559E-2,4.1758206E-2,-3.7996616E-2],"categories":[],"categories_nodes":[],"categories_segments":[],"categories_sizes":[],"default_left":[0,0,0,0,0,0,0,0,0,0,0,0,0,0,0,0,0,0,0,0,0,0,0,0,0,0,0,0,0,0,0,0,0,0,0,0,0,0,0,0,0,0,0,0,0,0,0,0,0,0,0,0,0,0,0,0,0,0,0,0,0,0,0,0,0,0,0,0,0,0,0,0,0,0,0,0,0,0,0,0,0,0,0,0,0,0,0,0,0,0,0,0,0,0,0,0,0,0,0,0,0,0,0,0,0,0,0,0,0,0,0,0,0,0,0,0,0,0,0,0,0,0,0,0,0,0,0],"id":9,"left_children":[1,3,5,7,9,11,13,15,17,19,21,23,25,27,29,31,33,35,37,39,41,43,45,47,49,51,53,55,57,59,61,63,65,67,69,71,73,75,77,79,81,83,85,87,89,91,93,95,97,99,101,103,105,107,109,111,113,115,117,119,121,123,125,-1,-1,-1,-1,-1,-1,-1,-1,-1,-1,-1,-1,-1,-1,-1,-1,-1,-1,-1,-1,-1,-1,-1,-1,-1,-1,-1,-1,-1,-1,-1,-1,-1,-1,-1,-1,-1,-1,-1,-1,-1,-1,-1,-1,-1,-1,-1,-1,-1,-1,-1,-1,-1,-1,-1,-1,-1,-1,-1,-1,-1,-1,-1,-1],"loss_changes":[1.591854E3,7.51146E2,2.6226953E2,2.6958972E2,4.6216687E2,1.412583E2,6.860187E1,7.9180756E1,8.520489E1,1.7091852E2,1.7451355E2,9.614685E1,3.8544678E1,2.9237679E1,4.822828E1,4.5657623E1,3.6334656E1,5.9804306E1,5.0143288E1,8.7984375E1,5.921824E1,7.3186646E1,8.794066E1,5.5885235E1,6.4054565E1,4.5093567E1,2.3420815E1,1.7444317E1,1.4568031E1,2.0873413E1,1.4185692E1,4.4358078E1,2.7060537E1,2.2991865E1,1.9133606E1,3.5956814E1,2.7193283E1,1.3666384E1,3.3277187E1,2.761995E1,5.7081764E1,3.0867496E1,6.0746704E1,3.7202393E1,1.2353577E1,5.7873383E1,4.5697205E1,3.655865E1,3.863765E1,5.5079285E1,9.8000244E1,1.7431824E1,1.5371768E1,1.5612015E1,1.5680607E1,1.910876E1,1.903072E1,1.70821E1,9.857704E0,1.7895111E1,1.960017E1,1.1228712E1,9.800064E0,0E0,0E0,0E0,0E0,0E0,0E0,0E0,0E0,0E0,0E0,0E0,0E0,0E0,0E0,0E0,0E0,0E0,0E0,0E0,0E0,0E0,0E0,0E0,0E0,0E0,0E0,0E0,0E0,0E0,0E0,0E0,0E0,0E0,0E0,0E0,0E0,0E0,0E0,0E0,0E0,0E0,0E0,0E0,0E0,0E0,0E0,0E0,0E0,0E0,0E0,0E0,0E0,0E0,0E0,0E0,0E0,0E0,0E0,0E0,0E0,0E0,0E0,0E0,0E0],"parents":[2147483647,0,0,1,1,2,2,3,3,4,4,5,5,6,6,7,7,8,8,9,9,10,10,11,11,12,12,13,13,14,14,15,15,16,16,17,17,18,18,19,19,20,20,21,21,22,22,23,23,24,24,25,25,26,26,27,27,28,28,29,29,30,30,31,31,32,32,33,33,34,34,35,35,36,36,37,37,38,38,39,39,40,40,41,41,42,42,43,43,44,44,45,45,46,46,47,47,48,48,49,49,50,50,51,51,52,52,53,53,54,54,55,55,56,56,57,57,58,58,59,59,60,60,61,61,62,62],"right_children":[2,4,6,8,10,12,14,16,18,20,22,24,26,28,30,32,34,36,38,40,42,44,46,48,50,52,54,56,58,60,62,64,66,68,70,72,74,76,78,80,82,84,86,88,90,92,94,96,98,100,102,104,106,108,110,112,114,116,118,120,122,124,126,-1,-1,-1,-1,-1,-1,-1,-1,-1,-1,-1,-1,-1,-1,-1,-1,-1,-1,-1,-1,-1,-1,-1,-1,-1,-1,-1,-1,-1,-1,-1,-1,-1,-1,-1,-1,-1,-1,-1,-1,-1,-1,-1,-1,-1,-1,-1,-1,-1,-1,-1,-1,-1,-1,-1,-1,-1,-1,-1,-1,-1,-1,-1,-1],"split_conditions":[7.1E2,4.0086E0,2.328E-1,1.831E-1,2.023E-1,7.55E2,3.9956353E0,6.85E2,6.85E2,6.9E2,6.85E2,1.89E-1,1E0,4.662758E0,3.065E-1,1.207E-1,4.55145E0,1E0,4.4771214E0,4.819544E0,4.886491E0,3.106E-1,2.671E-1,4.020154E0,4.120574E0,4.4828734E0,2.145E-1,2.593E-1,7.5E2,1E0,4.544068E0,4.6384892E0,1.822E-1,8.29E-2,3.867762E0,4.70757E0,4.5563025E0,2.033E-1,2.316E-1,4.234264E0,6.65E2,4.60206E0,4.3222194E0,4.1910315E0,1E0,2.52E-1,1E0,7.25E2,4.662758E0,4.662758E0,4.875061E0,4.4393325E0,5.2787538E0,4.69897E0,7.8E2,2.35E-1,4.4149733E0,4.996949E0,1.6E1,7.9E2,9.1E-1,9.61E-1,7.63E-1,-3.1090665E-3,-2.1560958E-2,-2.7663722E-3,-6.266346E-2,-3.5049316E-2,-1.0858332E-3,-3.501223E-2,-2.1548474E-2,7.4351886E-3,-8.008677E-3,2.1839319E-2,8.96332E-3,-2.239257E-2,1.5006107E-2,-2.0916004E-2,-4.46641E-3,1.3802706E-2,2.6587684E-2,1.7287534E-2,1.3231813E-3,2.4028039E-2,-1.2592026E-3,-2.6606519E-2,-4.6994486E-3,1.7750945E-2,2.880681E-2,3.4372654E-2,4.50439E-2,3.888503E-2,9.1863703E-4,1.3962375E-2,3.1528935E-2,1.5799778E-3,-3.706024E-2,4.471309E-2,5.6701264E-4,-2.0204443E-2,-4.2681225E-2,-4.8204544E-3,-2.866952E-2,-4.73259E-3,-5.4965306E-2,-2.449705E-3,-6.386217E-2,-1.2784647E-2,-3.9723333E-2,3.271431E-2,-7.015156E-2,3.0218596E-2,-4.3954324E-2,-3.234027E-2,1.7296972E-3,-3.4614403E-2,1.0701422E-2,-8.261469E-2,-3.1243583E-2,-1.1241871E-2,-5.4374795E-2,-5.3927646E-4,5.5758882E-2,6.0717906E-3,6.331559E-2,4.1758206E-2,-3.7996616E-2],"split_indices":[0,8,1,1,1,0,8,0,0,0,0,2,11,6,1,1,6,11,6,6,6,1,1,8,8,8,1,1,0,11,8,6,1,1,8,6,6,1,1,8,0,6,8,8,11,2,11,0,6,6,6,6,6,6,0,1,6,6,4,0,2,2,2,0,0,0,0,0,0,0,0,0,0,0,0,0,0,0,0,0,0,0,0,0,0,0,0,0,0,0,0,0,0,0,0,0,0,0,0,0,0,0,0,0,0,0,0,0,0,0,0,0,0,0,0,0,0,0,0,0,0,0,0,0,0,0,0],"split_type":[0,0,0,0,0,0,0,0,0,0,0,0,0,0,0,0,0,0,0,0,0,0,0,0,0,0,0,0,0,0,0,0,0,0,0,0,0,0,0,0,0,0,0,0,0,0,0,0,0,0,0,0,0,0,0,0,0,0,0,0,0,0,0,0,0,0,0,0,0,0,0,0,0,0,0,0,0,0,0,0,0,0,0,0,0,0,0,0,0,0,0,0,0,0,0,0,0,0,0,0,0,0,0,0,0,0,0,0,0,0,0,0,0,0,0,0,0,0,0,0,0,0,0,0,0,0,0],"sum_hessian":[3.1558934E4,2.4399244E4,7.159689E3,9.321089E3,1.5078156E4,4.8392607E3,2.3204282E3,4.4406436E3,4.8804453E3,7.72399E3,7.354166E3,3.787211E3,1.0520499E3,5.529479E2,1.7674803E3,3.0739224E3,1.366721E3,3.2202173E3,1.6602279E3,5.389667E3,2.3343235E3,4.3689756E3,2.9851904E3,6.2936066E2,3.15785E3,7.498974E2,3.0215256E2,3.1207745E2,2.4087042E2,1.1402101E3,6.272703E2,1.5007587E3,1.5731637E3,2.9538873E2,1.0713322E3,1.53049E3,1.6897272E3,3.1427332E2,1.3459546E3,1.9531536E3,3.4365132E3,1.0345028E3,1.2998208E3,3.2226833E3,1.1462922E3,1.4358906E3,1.5492998E3,2.602626E2,3.6909808E2,1.2348654E3,1.9229847E3,6.755997E2,7.429773E1,2.7642056E2,2.5731993E1,7.0252556E1,2.4182489E2,1.98951E2,4.1919426E1,7.926432E2,3.4756686E2,5.8023505E2,4.703527E1,4.7830872E2,1.02244995E3,1.5550723E3,1.8091469E1,6.241112E1,2.3297762E2,5.268809E2,5.444513E2,8.62996E2,6.67494E2,7.045432E2,9.85184E2,2.5798878E1,2.8847446E2,4.7476266E2,8.7119196E2,1.3314026E3,6.21751E2,7.032556E2,2.7332576E3,1.3844937E2,8.960534E2,5.440275E2,7.557932E2,1.2505985E3,1.9720848E3,6.25002E2,5.212902E2,1.0758347E2,1.3283073E3,9.331026E2,6.1619714E2,9.769909E1,1.6256352E2,5.796166E1,3.111364E2,4.1174442E2,8.23121E2,6.520219E2,1.2709629E3,1.7938572E1,6.576611E2,6.3126347E1,1.1171384E1,7.495203E1,2.0146852E2,2.228983E1,3.4421637E0,9.378381E0,6.087418E1,5.1181984E1,1.906429E2,1.7584697E2,2.310403E1,2.4063011E1,1.7856413E1,7.6873E2,2.3913176E1,3.3235342E2,1.5213429E1,5.725233E2,7.7117124E0,4.358909E1,3.4461834E0],"tree_param":{"num_deleted":"0","num_feature":"12","num_nodes":"127","size_leaf_vector":"1"}},{"base_weights":[-2.4711832E-3,1.5469846E-1,-3.3240712E-1,-6.0927976E-2,2.9337865E-1,-4.8297516E-1,-8.207695E-2,-2.3885675E-1,9.647931E-2,1.2712795E-1,4.5585135E-1,-4.0646657E-1,-8.0793566E-1,-3.8603854E-1,3.7977963E-3,-8.277845E-2,-3.4588006E-1,-4.3754283E-2,2.2467835E-1,2.8348896E-1,4.3091334E-2,3.869905E-1,6.309665E-1,-2.7236974E-1,-5.3947985E-1,-8.8452655E-1,-2.5124523E-1,-5.133953E-1,2.1479188E-2,7.6783806E-2,-3.49867E-1,-1.7046878E-1,6.666622E-2,-2.7375114E-1,-5.883173E-1,2.88782E-1,-1.16463706E-1,1.4216474E-1,4.6338803E-1,8.41715E-2,3.6145428E-1,-9.636809E-2,2.0085034E-1,4.7159854E-1,1.8732141E-1,5.060665E-1,7.856643E-1,-4.7785974E-1,-8.574591E-2,-6.227161E-1,-2.536239E-1,-7.49043E-1,-1.2251797E0,-9.346568E-2,-1.4274294E0,-8.1113786E-1,-3.6582586E-1,2.143862E-1,-4.4533247E-1,2.4814884E-1,-3.1961907E-2,2.0233253E-1,-4.722427E-1,2.5578115E-2,-9.64982E-3,-1.9599441E-3,2.2364339E-2,-2.0336023E-2,-6.8284096E-3,-2.0262782E-2,-3.6334984E-2,5.4275487E-3,2.713353E-2,-2.4124642E-3,-2.203863E-2,1.0459337E-2,-3.3750103E-3,1.8571306E-2,4.1451175E-2,3.979418E-2,1.9367367E-3,2.8747767E-2,1.4965019E-2,6.716008E-3,-1.0567676E-2,1.5679784E-2,3.6440701E-3,3.0780926E-2,2.0465877E-2,1.4776303E-2,-3.4604818E-3,3.0591076E-2,1.4162602E-2,4.920722E-2,3.4948595E-2,1.5540259E-2,-2.7194316E-2,1.1274383E-2,-1.3327944E-2,-1.7922776E-2,-3.402893E-2,-3.8219579E-3,-3.423018E-2,-9.693041E-3,-4.3214764E-2,-3.5388898E-2,-6.636717E-2,4.124899E-3,-5.9632946E-2,-2.2388218E-2,-8.15768E-2,-2.2406304E-2,-6.0993392E-2,-6.050087E-3,-2.989162E-2,1.3476232E-2,-7.286181E-2,-3.148355E-2,4.2755462E-2,7.1990895E-3,2.790972E-2,-6.643074E-3,1.1142132E-2,-1.1241909E-2,3.1089112E-2,3.2231584E-2,-2.677769E-2],"categories":[],"categories_nodes":[],"categories_segments":[],"categories_sizes":[],"default_left":[0,0,0,0,0,0,0,0,0,0,0,0,0,0,0,0,0,0,0,0,0,0,0,0,0,0,0,0,0,0,0,0,0,0,0,0,0,0,0,0,0,0,0,0,0,0,0,0,0,0,0,0,0,0,0,0,0,0,0,0,0,0,0,0,0,0,0,0,0,0,0,0,0,0,0,0,0,0,0,0,0,0,0,0,0,0,0,0,0,0,0,0,0,0,0,0,0,0,0,0,0,0,0,0,0,0,0,0,0,0,0,0,0,0,0,0,0,0,0,0,0,0,0,0,0,0,0],"id":10,"left_children":[1,3,5,7,9,11,13,15,17,19,21,23,25,27,29,31,33,35,37,39,41,43,45,47,49,51,53,55,57,59,61,63,65,67,69,71,73,75,77,79,81,83,85,87,89,91,93,95,97,99,101,103,105,107,109,111,113,115,117,119,121,123,125,-1,-1,-1,-1,-1,-1,-1,-1,-1,-1,-1,-1,-1,-1,-1,-1,-1,-1,-1,-1,-1,-1,-1,-1,-1,-1,-1,-1,-1,-1,-1,-1,-1,-1,-1,-1,-1,-1,-1,-1,-1,-1,-1,-1,-1,-1,-1,-1,-1,-1,-1,-1,-1,-1,-1,-1,-1,-1,-1,-1,-1,-1,-1,-1],"loss_changes":[1.6295804E3,6.3652136E2,3.8214124E2,2.333869E2,3.498523E2,1.5708044E2,9.943738E1,6.530849E1,7.950401E1,8.413768E1,7.875391E1,9.129614E1,5.1178772E1,4.3563797E1,7.672268E1,2.0879557E1,4.040921E1,5.1113503E1,4.543728E1,3.4755768E1,9.168778E1,7.939166E1,3.529834E1,9.794029E1,6.1056396E1,4.797406E1,2.7183298E1,2.7796814E1,1.8175053E1,4.5921223E1,3.4455475E1,1.5522068E1,2.3774101E1,3.2595123E1,1.3159897E1,1.7298874E1,3.8345413E1,2.4158546E1,1.9630768E1,2.0365353E1,2.1176498E1,5.870934E1,2.8188576E1,2.9382385E1,3.8934414E1,2.3979095E1,1.3481323E1,6.3479156E1,7.547808E1,3.021283E1,4.438163E1,4.8492676E1,1.4911041E1,2.5408655E1,2.7367592E0,3.07697E1,2.4314003E1,1.3549036E1,1.4689599E1,3.081506E1,3.8804287E1,1.6792736E1,2.9797852E1,0E0,0E0,0E0,0E0,0E0,0E0,0E0,0E0,0E0,0E0,0E0,0E0,0E0,0E0,0E0,0E0,0E0,0E0,0E0,0E0,0E0,0E0,0E0,0E0,0E0,0E0,0E0,0E0,0E0,0E0,0E0,0E0,0E0,0E0,0E0,0E0,0E0,0E0,0E0,0E0,0E0,0E0,0E0,0E0,0E0,0E0,0E0,0E0,0E0,0E0,0E0,0E0,0E0,0E0,0E0,0E0,0E0,0E0,0E0,0E0,0E0,0E0,0E0,0E0],"parents":[2147483647,0,0,1,1,2,2,3,3,4,4,5,5,6,6,7,7,8,8,9,9,10,10,11,11,12,12,13,13,14,14,15,15,16,16,17,17,18,18,19,19,20,20,21,21,22,22,23,23,24,24,25,25,26,26,27,27,28,28,29,29,30,30,31,31,32,32,33,33,34,34,35,35,36,36,37,37,38,38,39,39,40,40,41,41,42,42,43,43,44,44,45,45,46,46,47,47,48,48,49,49,50,50,51,51,52,52,53,53,54,54,55,55,56,56,57,57,58,58,59,59,60,60,61,61,62,62],"right_children":[2,4,6,8,10,12,14,16,18,20,22,24,26,28,30,32,34,36,38,40,42,44,46,48,50,52,54,56,58,60,62,64,66,68,70,72,74,76,78,80,82,84,86,88,90,92,94,96,98,100,102,104,106,108,110,112,114,116,118,120,122,124,126,-1,-1,-1,-1,-1,-1,-1,-1,-1,-1,-1,-1,-1,-1,-1,-1,-1,-1,-1,-1,-1,-1,-1,-1,-1,-1,-1,-1,-1,-1,-1,-1,-1,-1,-1,-1,-1,-1,-1,-1,-1,-1,-1,-1,-1,-1,-1,-1,-1,-1,-1,-1,-1,-1,-1,-1,-1,-1,-1,-1,-1,-1,-1,-1],"split_conditions":[7E2,4.0086E0,2.23E-1,1.804E-1,1.966E-1,7.5E2,3.961421E0,4.690196E0,1E0,4.819544E0,3.026E-1,4.8692317E0,4.462398E0,3.306E-1,7.4E2,3.867762E0,6.85E2,6.65E2,3.026E-1,4.087249E0,4.304275E0,3.9E1,1E0,4.0232525E0,4.4771214E0,7.85E2,4.23E-1,1E1,7.25E2,3.5E1,4.662758E0,4.1583624E0,1.2E1,1.197E-1,4.31E-1,1.3E1,4.8808136E0,6.85E2,1.7E1,1.68E-1,3.97E-1,6.7E2,5.045323E0,6.7E2,4.963788E0,6.85E2,6.7E2,4.3424225E0,3.36E-1,7.05E2,5.20412E0,9E-2,4.662758E0,5.2787538E0,8.71E-2,4.5682015E0,3.7781513E0,2.3E1,5.3E1,4.357935E0,1E0,4.108903E0,3.6E-2,2.5578115E-2,-9.64982E-3,-1.9599441E-3,2.2364339E-2,-2.0336023E-2,-6.8284096E-3,-2.0262782E-2,-3.6334984E-2,5.4275487E-3,2.713353E-2,-2.4124642E-3,-2.203863E-2,1.0459337E-2,-3.3750103E-3,1.8571306E-2,4.1451175E-2,3.979418E-2,1.9367367E-3,2.8747767E-2,1.4965019E-2,6.716008E-3,-1.0567676E-2,1.5679784E-2,3.6440701E-3,3.0780926E-2,2.0465877E-2,1.4776303E-2,-3.4604818E-3,3.0591076E-2,1.4162602E-2,4.920722E-2,3.4948595E-2,1.5540259E-2,-2.7194316E-2,1.1274383E-2,-1.3327944E-2,-1.7922776E-2,-3.402893E-2,-3.8219579E-3,-3.423018E-2,-9.693041E-3,-4.3214764E-2,-3.5388898E-2,-6.636717E-2,4.124899E-3,-5.9632946E-2,-2.2388218E-2,-8.15768E-2,-2.2406304E-2,-6.0993392E-2,-6.050087E-3,-2.989162E-2,1.3476232E-2,-7.286181E-2,-3.148355E-2,4.2755462E-2,7.1990895E-3,2.790972E-2,-6.643074E-3,1.1142132E-2,-1.1241909E-2,3.1089112E-2,3.2231584E-2,-2.677769E-2],"split_indices":[0,8,1,1,1,0,8,6,11,6,1,6,8,1,0,8,0,0,1,8,8,5,11,8,8,0,2,4,0,5,6,6,4,1,2,4,6,0,4,2,2,0,6,0,6,0,0,6,2,0,6,2,6,6,1,6,8,4,5,8,11,8,2,0,0,0,0,0,0,0,0,0,0,0,0,0,0,0,0,0,0,0,0,0,0,0,0,0,0,0,0,0,0,0,0,0,0,0,0,0,0,0,0,0,0,0,0,0,0,0,0,0,0,0,0,0,0,0,0,0,0,0,0,0,0,0,0],"split_type":[0,0,0,0,0,0,0,0,0,0,0,0,0,0,0,0,0,0,0,0,0,0,0,0,0,0,0,0,0,0,0,0,0,0,0,0,0,0,0,0,0,0,0,0,0,0,0,0,0,0,0,0,0,0,0,0,0,0,0,0,0,0,0,0,0,0,0,0,0,0,0,0,0,0,0,0,0,0,0,0,0,0,0,0,0,0,0,0,0,0,0,0,0,0,0,0,0,0,0,0,0,0,0,0,0,0,0,0,0,0,0,0,0,0,0,0,0,0,0,0,0,0,0,0,0,0,0],"sum_hessian":[3.1423172E4,2.128452E4,1.0138651E4,8.331256E3,1.2953264E4,6.330229E3,3.8084219E3,3.9104622E3,4.420794E3,6.4030767E3,6.5501875E3,5.1256895E3,1.2045397E3,8.381648E2,2.970257E3,1.5914019E3,2.31906E3,2.1116135E3,2.3091804E3,2.2375154E3,4.165561E3,4.703738E3,1.8464496E3,2.5539663E3,2.5717231E3,1.0583416E3,1.4619815E2,6.383949E2,1.997699E2,2.4627922E3,5.0746494E2,1.0028275E3,5.8857434E2,1.7889487E3,5.301114E2,3.7833374E2,1.7332798E3,1.7171998E3,5.919805E2,6.2972076E2,1.6077946E3,2.2112227E3,1.9543384E3,3.30283E3,1.4009081E3,1.0239796E3,8.2247E2,1.2147997E3,1.3391667E3,1.9908452E3,5.808779E2,7.594816E2,2.9885992E2,1.2985782E2,1.6340345E1,2.1006395E2,4.2833093E2,1.417382E2,5.803169E1,9.5561725E2,1.5071748E3,9.194145E1,4.155235E2,3.1370382E1,9.7145715E2,4.6119534E2,1.2737901E2,9.0742816E2,8.8152057E2,2.2990538E2,3.00206E2,2.2209792E2,1.5623584E2,1.433012E3,3.0026782E2,1.3012434E3,4.159564E2,4.746228E2,1.1735775E2,3.6798615E1,5.929222E2,3.6066077E2,1.2471338E3,7.354887E2,1.4757341E3,1.0381975E3,9.161408E2,9.9442206E2,2.308408E3,9.8519946E2,4.157086E2,6.932124E2,3.307672E2,2.4688377E2,5.755862E2,9.3559204E1,1.1212405E3,4.920145E2,8.471522E2,3.5890457E2,1.6319407E3,4.124773E2,1.6840067E2,1.3102126E2,6.284603E2,5.0587975E1,2.4827194E2,1.1273556E2,1.7122253E1,3.3680832E0,1.2972262E1,1.1236439E2,9.769957E1,2.0914886E2,2.1918208E2,1.3802425E2,3.7139637E0,5.12787E1,6.75299E0,7.1639276E2,2.392245E2,1.0799901E3,4.2718466E2,4.578135E1,4.61601E1,2.1798214E1,3.9372528E2],"tree_param":{"num_deleted":"0","num_feature":"12","num_nodes":"127","size_leaf_vector":"1"}},{"base_weights":[-2.7158626E-3,1.19536586E-1,-3.294505E-1,-1.2727001E-1,2.3014612E-1,-4.450431E-1,-3.676598E-2,-3.595362E-1,-1.8198522E-2,2.5095616E-2,3.504306E-1,-3.7112153E-1,-7.8125644E-1,-1.4005877E-1,1.5164784E-1,-6.9835715E-2,-4.448915E-1,1.0608846E-1,-1.5504748E-1,4.2960656E-1,-2.8811298E-2,2.6058576E-1,5.366825E-1,-5.995712E-1,-3.0386585E-1,-8.5743177E-1,-1.8047598E-1,5.385147E-2,-2.5689164E-1,3.6838267E-2,3.9910516E-1,4.9392752E-2,-4.728946E-1,-2.9608566E-1,-5.322906E-1,2.4064648E-1,-6.0454593E-3,-3.8539565E-1,-7.414388E-2,6.463263E-1,2.2159086E-1,-8.5604586E-2,1.935056E-1,3.6698735E-1,6.619427E-2,6.758197E-1,4.4851366E-1,-8.3899714E-2,-6.948651E-1,-6.813993E-2,-4.36131E-1,1.6570163E-1,-9.007566E-1,2.4777114E-1,-4.7662646E-1,-2.3831826E-1,2.4002121E-1,-1.17897764E-1,-5.497451E-1,-6.660533E-2,2.7178702E-1,5.328927E-1,5.8016825E-2,1.136954E-2,-1.277031E-2,-4.52487E-2,-3.0786598E-3,-4.130415E-3,-2.3017382E-2,-2.930354E-2,-6.634995E-3,8.912371E-3,2.4898816E-2,-7.5344257E-3,4.2977915E-3,-1.6724708E-3,-2.4902327E-2,1.23086665E-2,-7.0119076E-3,1.7111009E-2,4.3622777E-2,2.0543978E-4,2.9916173E-2,-6.1191985E-4,-1.2775754E-2,-2.0933172E-2,1.2165069E-2,1.1991509E-2,2.2367101E-2,6.3305483E-3,-6.902357E-3,2.8942872E-2,4.00512E-2,2.7715085E-2,1.6745877E-2,3.8666844E-3,-4.3078452E-2,-2.8318336E-2,-4.573615E-2,-8.209749E-3,6.8338267E-3,-3.312928E-2,-1.6576469E-2,3.8398124E-2,-2.0664928E-2,-4.8806965E-2,-2.4033831E-2,2.2099053E-2,-6.8665035E-2,-2.9532982E-2,3.7671078E-2,4.2443085E-3,-2.9834269E-2,-1.6108056E-3,2.693506E-2,-8.137501E-3,3.4477077E-2,-1.6087078E-2,-4.137152E-2,8.225596E-3,-1.3106272E-2,-1.252682E-2,1.724132E-2,-4.387299E-3,2.8974628E-2,-1.2068726E-2,4.09881E-2],"categories":[],"categories_nodes":[],"categories_segments":[],"categories_sizes":[],"default_left":[0,0,0,0,0,0,0,0,0,0,0,0,0,0,0,0,0,0,0,0,0,0,0,0,0,0,0,0,0,0,0,0,0,0,0,0,0,0,0,0,0,0,0,0,0,0,0,0,0,0,0,0,0,0,0,0,0,0,0,0,0,0,0,0,0,0,0,0,0,0,0,0,0,0,0,0,0,0,0,0,0,0,0,0,0,0,0,0,0,0,0,0,0,0,0,0,0,0,0,0,0,0,0,0,0,0,0,0,0,0,0,0,0,0,0,0,0,0,0,0,0,0,0,0,0,0,0],"id":11,"left_children":[1,3,5,7,9,11,13,15,17,19,21,23,25,27,29,31,33,35,37,39,41,43,45,47,49,51,53,55,57,59,61,63,65,67,69,71,73,75,77,79,81,83,85,87,89,91,93,95,97,99,101,103,105,107,109,111,113,115,117,119,121,123,125,-1,-1,-1,-1,-1,-1,-1,-1,-1,-1,-1,-1,-1,-1,-1,-1,-1,-1,-1,-1,-1,-1,-1,-1,-1,-1,-1,-1,-1,-1,-1,-1,-1,-1,-1,-1,-1,-1,-1,-1,-1,-1,-1,-1,-1,-1,-1,-1,-1,-1,-1,-1,-1,-1,-1,-1,-1,-1,-1,-1,-1,-1,-1,-1],"loss_changes":[1.2497267E3,6.215753E2,2.8819818E2,1.7851036E2,3.8777246E2,1.5148853E2,4.698253E1,5.564627E1,8.1589424E1,1.2679228E2,1.656803E2,7.676581E1,5.0177002E1,3.5334953E1,2.4273947E1,2.4705688E1,2.245929E1,3.7933228E1,4.2518337E1,3.0681076E1,6.480437E1,1.3827954E2,3.9243164E1,5.586508E1,1.2066528E2,4.3402344E1,1.5974133E1,3.1986435E1,3.954393E1,1.4237852E1,1.2328392E1,2.161151E1,2.0798946E1,2.2604805E1,2.3438965E1,1.8260406E1,1.8273407E1,2.3501762E1,3.583186E1,2.269365E1,2.8707024E1,5.0954628E1,3.1939178E1,4.4044434E1,2.9219563E1,1.4692444E1,2.3562744E1,2.2465567E1,2.661438E1,2.7419224E1,5.8514923E1,1.4434998E1,2.9179993E1,1.6905632E1,1.08601265E1,2.6570759E1,2.9211784E1,2.4056206E1,1.9545708E1,1.843599E1,6.917201E0,5.6735916E0,1.7855661E1,0E0,0E0,0E0,0E0,0E0,0E0,0E0,0E0,0E0,0E0,0E0,0E0,0E0,0E0,0E0,0E0,0E0,0E0,0E0,0E0,0E0,0E0,0E0,0E0,0E0,0E0,0E0,0E0,0E0,0E0,0E0,0E0,0E0,0E0,0E0,0E0,0E0,0E0,0E0,0E0,0E0,0E0,0E0,0E0,0E0,0E0,0E0,0E0,0E0,0E0,0E0,0E0,0E0,0E0,0E0,0E0,0E0,0E0,0E0,0E0,0E0,0E0,0E0,0E0],"parents":[2147483647,0,0,1,1,2,2,3,3,4,4,5,5,6,6,7,7,8,8,9,9,10,10,11,11,12,12,13,13,14,14,15,15,16,16,17,17,18,18,19,19,20,20,21,21,22,22,23,23,24,24,25,25,26,26,27,27,28,28,29,29,30,30,31,31,32,32,33,33,34,34,35,35,36,36,37,37,38,38,39,39,40,40,41,41,42,42,43,43,44,44,45,45,46,46,47,47,48,48,49,49,50,50,51,51,52,52,53,53,54,54,55,55,56,56,57,57,58,58,59,59,60,60,61,61,62,62],"right_children":[2,4,6,8,10,12,14,16,18,20,22,24,26,28,30,32,34,36,38,40,42,44,46,48,50,52,54,56,58,60,62,64,66,68,70,72,74,76,78,80,82,84,86,88,90,92,94,96,98,100,102,104,106,108,110,112,114,116,118,120,122,124,126,-1,-1,-1,-1,-1,-1,-1,-1,-1,-1,-1,-1,-1,-1,-1,-1,-1,-1,-1,-1,-1,-1,-1,-1,-1,-1,-1,-1,-1,-1,-1,-1,-1,-1,-1,-1,-1,-1,-1,-1,-1,-1,-1,-1,-1,-1,-1,-1,-1,-1,-1,-1,-1,-1,-1,-1,-1,-1,-1,-1,-1,-1,-1,-1],"split_conditions":[7.05E2,1.482E-1,2.476E-1,3.961421E0,4.0086E0,7.55E2,1E0,4.55145E0,1E0,5E-1,2.699E-1,3.961421E0,4.4771214E0,5E0,4.2787538E0,6E0,6.7E2,6.75E2,4.087249E0,4.462398E0,3.026E-1,6.85E2,6.75E2,4.4771214E0,4.8260746E0,4.447158E0,1.1E1,4.120574E0,7.3E2,3.28E-1,7.3E2,6.8E2,1.068E-1,4.7558746E0,1.5E1,4.3344536E0,4.176091E0,4.70757E0,4.792392E0,3.7263196E0,3.9242792E0,6.85E2,3.4771214E0,4.1910315E0,5.0043216E0,1E0,1E0,6E0,7.25E2,1.3E1,4.2552724E0,5E-1,1.8E1,5.2787538E0,1E0,4.6384892E0,3.005E-1,3.808E-1,4.845098E0,4.612784E0,4.4149733E0,2.541E-1,1.9E1,1.136954E-2,-1.277031E-2,-4.52487E-2,-3.0786598E-3,-4.130415E-3,-2.3017382E-2,-2.930354E-2,-6.634995E-3,8.912371E-3,2.4898816E-2,-7.5344257E-3,4.2977915E-3,-1.6724708E-3,-2.4902327E-2,1.23086665E-2,-7.0119076E-3,1.7111009E-2,4.3622777E-2,2.0543978E-4,2.9916173E-2,-6.1191985E-4,-1.2775754E-2,-2.0933172E-2,1.2165069E-2,1.1991509E-2,2.2367101E-2,6.3305483E-3,-6.902357E-3,2.8942872E-2,4.00512E-2,2.7715085E-2,1.6745877E-2,3.8666844E-3,-4.3078452E-2,-2.8318336E-2,-4.573615E-2,-8.209749E-3,6.8338267E-3,-3.312928E-2,-1.6576469E-2,3.8398124E-2,-2.0664928E-2,-4.8806965E-2,-2.4033831E-2,2.2099053E-2,-6.8665035E-2,-2.9532982E-2,3.7671078E-2,4.2443085E-3,-2.9834269E-2,-1.6108056E-3,2.693506E-2,-8.137501E-3,3.4477077E-2,-1.6087078E-2,-4.137152E-2,8.225596E-3,-1.3106272E-2,-1.252682E-2,1.724132E-2,-4.387299E-3,2.8974628E-2,-1.2068726E-2,4.09881E-2],"split_indices":[0,1,1,8,8,0,11,6,9,7,1,8,8,7,8,7,0,0,8,6,1,0,0,6,6,6,4,8,0,1,0,0,1,6,4,8,8,6,6,8,8,0,8,8,6,11,9,7,0,4,8,7,4,6,3,6,1,1,6,6,6,1,4,0,0,0,0,0,0,0,0,0,0,0,0,0,0,0,0,0,0,0,0,0,0,0,0,0,0,0,0,0,0,0,0,0,0,0,0,0,0,0,0,0,0,0,0,0,0,0,0,0,0,0,0,0,0,0,0,0,0,0,0,0,0,0,0],"split_type":[0,0,0,0,0,0,0,0,0,0,0,0,0,0,0,0,0,0,0,0,0,0,0,0,0,0,0,0,0,0,0,0,0,0,0,0,0,0,0,0,0,0,0,0,0,0,0,0,0,0,0,0,0,0,0,0,0,0,0,0,0,0,0,0,0,0,0,0,0,0,0,0,0,0,0,0,0,0,0,0,0,0,0,0,0,0,0,0,0,0,0,0,0,0,0,0,0,0,0,0,0,0,0,0,0,0,0,0,0,0,0,0,0,0,0,0,0,0,0,0,0,0,0,0,0,0,0],"sum_hessian":[3.12849E4,2.2766953E4,8.517948E3,7.04564E3,1.57213125E4,6.105948E3,2.4119995E3,2.2506394E3,4.7950005E3,5.813009E3,9.908304E3,5.007154E3,1.0987947E3,1.5580806E3,8.53919E2,5.1261505E2,1.7380244E3,2.5129502E3,2.2820505E3,6.8275195E2,5.130257E3,6.685654E3,3.2226497E3,1.1370342E3,3.8701194E3,9.747722E2,1.24022415E2,5.860082E2,9.720724E2,5.840799E2,2.698391E2,3.9627173E2,1.1634331E2,6.447166E2,1.0933077E3,1.1417416E3,1.3712086E3,5.921945E2,1.689856E3,3.333482E2,3.4940375E2,4.086843E3,1.0434138E3,4.320118E3,2.3655354E3,1.2474354E3,1.9752142E3,1.7763948E2,9.593947E2,1.391562E3,2.4785574E3,3.948532E1,9.352869E2,5.077001E1,7.32524E1,2.2796538E2,3.5804282E2,6.6015344E2,3.1191898E2,4.0602924E2,1.7805066E2,1.93413E2,7.642611E1,2.5033423E2,1.459375E2,5.615461E1,6.01887E1,2.8101202E2,3.6370456E2,9.6320514E2,1.3010265E2,9.202788E2,2.214627E2,5.3284296E2,8.3836566E2,1.4390392E2,4.4829062E2,2.8857767E2,1.4012782E3,1.4323473E2,1.9011348E2,2.2216318E2,1.2724056E2,2.8551018E3,1.2317413E3,7.793276E1,9.654811E2,1.6744193E3,2.645699E3,1.8258195E3,5.3971594E2,7.061744E2,5.4126105E2,1.0207483E3,9.54466E2,1.4788019E2,2.9759295E1,6.077592E2,3.5163556E2,9.474325E2,4.4412955E2,7.814479E2,1.6971095E3,1.9193933E1,2.0291388E1,7.918644E2,1.4342256E2,4.5987865E1,4.7821493E0,6.75133E1,5.7390995E0,1.20264366E2,1.0770101E2,1.8777971E2,1.702631E2,6.2616895E2,3.398447E1,1.7246722E2,1.3945174E2,1.8614847E2,2.1988077E2,2.1545195E1,1.5650546E2,1.3446274E1,1.7996672E2,5.535347E1,2.1072638E1],"tree_param":{"num_deleted":"0","num_feature":"12","num_nodes":"127","size_leaf_vector":"1"}},{"base_weights":[2.2769363E-3,-1.4388E-1,1.8555295E-1,-3.443364E-1,-6.391139E-2,-3.5315324E-2,2.726873E-1,-1.655392E-3,-4.1707546E-1,5.076064E-2,-2.3112477E-1,-1.7187275E-1,1.03507414E-1,4.0040237E-1,1.4449672E-1,2.5023055E-1,-1.8057051E-1,-3.2008865E-1,-5.530082E-1,-3.1384617E-2,1.6218096E-1,-3.246837E-1,3.1281114E-2,-3.0381697E-1,-6.720469E-2,5.724369E-1,3.491995E-2,3.1451187E-1,5.7766724E-1,2.4271215E-1,-6.765556E-3,-1.0964841E-1,3.8338324E-1,-7.3900926E-1,-5.5896502E-2,-5.389983E-1,-2.4098003E-1,-6.6393983E-1,-3.3411786E-1,1.5904626E-1,-1.774821E-1,4.9940523E-2,3.38854E-1,-2.304098E-1,-5.4002494E-1,2.7083144E-1,-1.15518905E-1,-9.924428E-2,-4.4435462E-1,1.079871E-1,-2.3332547E-1,3.36596E-1,7.739064E-1,-3.1510185E-2,2.7756992E-1,3.6903813E-1,1.4509206E-1,5.8317304E-1,-8.431793E-2,1.801683E-1,3.5708278E-1,-1.6839063E-1,1.7629208E-1,-7.475062E-2,-1.623813E-3,2.1425271E-2,-2.9999403E-2,-1.802076E-2,-7.129651E-2,-5.8561745E-3,2.2280365E-2,-3.476454E-2,-1.6115477E-2,-2.5928734E-2,-7.4206935E-3,-2.9143536E-2,-4.402073E-2,-1.0702975E-2,-2.8815156E-2,3.992326E-3,1.616898E-2,-1.7154312E-2,-4.153386E-3,8.719653E-3,-3.4812987E-3,2.637496E-2,1.2362241E-2,-1.8071992E-2,-7.458327E-3,-3.1948578E-2,-1.2010622E-2,-4.9326647E-2,1.5173927E-2,-2.993506E-4,-2.4726171E-2,1.573522E-3,-2.459613E-2,-3.3832014E-2,-1.3162213E-2,1.0933816E-2,-7.292665E-3,-5.1319163E-2,-7.829246E-3,-3.9613254E-2,2.2115352E-2,5.250097E-2,2.4663879E-2,5.177758E-4,-2.0725606E-2,3.4091384E-3,2.4785817E-2,1.5393011E-2,2.6700353E-2,9.472515E-3,-1.683646E-2,1.730576E-2,3.1121988E-2,1.24024255E-2,8.2121475E-4,1.2767148E-2,2.9103016E-2,-3.4875757E-4,-1.5017918E-2,4.7834974E-2,7.679593E-3],"categories":[],"categories_nodes":[],"categories_segments":[],"categories_sizes":[],"default_left":[0,0,0,0,0,0,0,0,0,0,0,0,0,0,0,0,0,0,0,0,0,0,0,0,0,0,0,0,0,0,0,0,0,0,0,0,0,0,0,0,0,0,0,0,0,0,0,0,0,0,0,0,0,0,0,0,0,0,0,0,0,0,0,0,0,0,0,0,0,0,0,0,0,0,0,0,0,0,0,0,0,0,0,0,0,0,0,0,0,0,0,0,0,0,0,0,0,0,0,0,0,0,0,0,0,0,0,0,0,0,0,0,0,0,0,0,0,0,0,0,0,0,0,0,0],"id":12,"left_children":[1,3,5,7,9,11,13,15,17,19,21,23,25,27,29,31,33,35,37,39,41,43,45,47,49,51,53,55,57,59,61,63,65,67,69,71,73,75,77,79,81,83,85,87,89,91,93,95,97,99,101,103,105,107,109,111,113,115,-1,117,119,121,123,-1,-1,-1,-1,-1,-1,-1,-1,-1,-1,-1,-1,-1,-1,-1,-1,-1,-1,-1,-1,-1,-1,-1,-1,-1,-1,-1,-1,-1,-1,-1,-1,-1,-1,-1,-1,-1,-1,-1,-1,-1,-1,-1,-1,-1,-1,-1,-1,-1,-1,-1,-1,-1,-1,-1,-1,-1,-1,-1,-1,-1,-1],"loss_changes":[8.4040704E2,2.7977493E2,2.6788916E2,1.2406287E2,2.392761E2,7.468422E1,1.633598E2,3.936555E1,5.3951355E1,6.776033E1,1.2463611E2,2.7405693E1,6.2818134E1,7.593787E1,7.4032E1,1.7425863E1,3.5516876E1,4.140619E1,4.125714E1,1.1860448E2,6.2283707E1,7.58461E1,4.6982586E1,2.5204445E1,3.2291836E1,1.1581879E1,2.750053E1,3.1077332E1,2.1309082E1,2.154802E1,5.8100697E1,1.0509209E1,1.2016708E1,2.3705875E1,1.29054165E1,2.1310669E1,4.5240715E1,1.9364563E1,1.664077E1,2.406279E1,3.768769E1,2.8617907E1,2.095964E1,2.7671692E1,3.362674E1,2.1136204E1,3.4391838E1,1.8438164E1,2.1710136E1,1.5213008E1,3.4492905E1,1.4263816E1,9.837402E0,2.1488398E1,1.6714487E1,2.5559052E1,1.763557E1,1.4932861E1,0E0,2.1728466E1,2.4276642E1,2.2213451E1,1.6166067E1,0E0,0E0,0E0,0E0,0E0,0E0,0E0,0E0,0E0,0E0,0E0,0E0,0E0,0E0,0E0,0E0,0E0,0E0,0E0,0E0,0E0,0E0,0E0,0E0,0E0,0E0,0E0,0E0,0E0,0E0,0E0,0E0,0E0,0E0,0E0,0E0,0E0,0E0,0E0,0E0,0E0,0E0,0E0,0E0,0E0,0E0,0E0,0E0,0E0,0E0,0E0,0E0,0E0,0E0,0E0,0E0,0E0,0E0,0E0,0E0,0E0,0E0],"parents":[2147483647,0,0,1,1,2,2,3,3,4,4,5,5,6,6,7,7,8,8,9,9,10,10,11,11,12,12,13,13,14,14,15,15,16,16,17,17,18,18,19,19,20,20,21,21,22,22,23,23,24,24,25,25,26,26,27,27,28,28,29,29,30,30,31,31,32,32,33,33,34,34,35,35,36,36,37,37,38,38,39,39,40,40,41,41,42,42,43,43,44,44,45,45,46,46,47,47,48,48,49,49,50,50,51,51,52,52,53,53,54,54,55,55,56,56,57,57,59,59,60,60,61,61,62,62],"right_children":[2,4,6,8,10,12,14,16,18,20,22,24,26,28,30,32,34,36,38,40,42,44,46,48,50,52,54,56,58,60,62,64,66,68,70,72,74,76,78,80,82,84,86,88,90,92,94,96,98,100,102,104,106,108,110,112,114,116,-1,118,120,122,124,-1,-1,-1,-1,-1,-1,-1,-1,-1,-1,-1,-1,-1,-1,-1,-1,-1,-1,-1,-1,-1,-1,-1,-1,-1,-1,-1,-1,-1,-1,-1,-1,-1,-1,-1,-1,-1,-1,-1,-1,-1,-1,-1,-1,-1,-1,-1,-1,-1,-1,-1,-1,-1,-1,-1,-1,-1,-1,-1,-1,-1,-1],"split_conditions":[2.073E-1,3.961421E0,3.9956353E0,4.50515E0,4.942008E0,1E0,1E0,1E0,1E0,4.20412E0,4.462398E0,5.02E-1,5E-1,3.026E-1,3.9E1,3.6232493E0,8.29E-2,7E0,1.61E-1,4.70757E0,1E0,4.1E1,1E0,3.7403626E0,4.69897E0,3.7263196E0,3.234E-1,4E1,5.193125E0,4.3222194E0,2.744E-1,3.68E-2,3.9395192E0,7E0,3.9242792E0,3.7817554E0,2.75E-1,4E1,4.8633227E0,6.22E-1,1.207E-1,3.6E1,4E-1,1.09E-1,1E0,2.9E1,5.2576785E0,4.1E1,3.867762E0,3.9E1,3.4771214E0,2.25E-1,4.39794E0,4.2E1,3.8129134E0,4.304275E0,5.064458E0,9E0,-8.431793E-2,4.8512583E0,7.39E-1,4.8920946E0,2.76E-1,-7.475062E-2,-1.623813E-3,2.1425271E-2,-2.9999403E-2,-1.802076E-2,-7.129651E-2,-5.8561745E-3,2.2280365E-2,-3.476454E-2,-1.6115477E-2,-2.5928734E-2,-7.4206935E-3,-2.9143536E-2,-4.402073E-2,-1.0702975E-2,-2.8815156E-2,3.992326E-3,1.616898E-2,-1.7154312E-2,-4.153386E-3,8.719653E-3,-3.4812987E-3,2.637496E-2,1.2362241E-2,-1.8071992E-2,-7.458327E-3,-3.1948578E-2,-1.2010622E-2,-4.9326647E-2,1.5173927E-2,-2.993506E-4,-2.4726171E-2,1.573522E-3,-2.459613E-2,-3.3832014E-2,-1.3162213E-2,1.0933816E-2,-7.292665E-3,-5.1319163E-2,-7.829246E-3,-3.9613254E-2,2.2115352E-2,5.250097E-2,2.4663879E-2,5.177758E-4,-2.0725606E-2,3.4091384E-3,2.4785817E-2,1.5393011E-2,2.6700353E-2,9.472515E-3,-1.683646E-2,1.730576E-2,3.1121988E-2,1.24024255E-2,8.2121475E-4,1.2767148E-2,2.9103016E-2,-3.4875757E-4,-1.5017918E-2,4.7834974E-2,7.679593E-3],"split_indices":[1,8,8,6,6,11,9,7,9,8,8,2,7,1,5,8,1,4,1,6,11,5,9,8,6,8,1,5,6,8,1,1,8,4,8,8,2,5,6,2,1,5,2,1,11,5,6,5,8,5,8,1,6,5,8,8,6,4,0,6,2,6,1,0,0,0,0,0,0,0,0,0,0,0,0,0,0,0,0,0,0,0,0,0,0,0,0,0,0,0,0,0,0,0,0,0,0,0,0,0,0,0,0,0,0,0,0,0,0,0,0,0,0,0,0,0,0,0,0,0,0,0,0,0,0],"split_type":[0,0,0,0,0,0,0,0,0,0,0,0,0,0,0,0,0,0,0,0,0,0,0,0,0,0,0,0,0,0,0,0,0,0,0,0,0,0,0,0,0,0,0,0,0,0,0,0,0,0,0,0,0,0,0,0,0,0,0,0,0,0,0,0,0,0,0,0,0,0,0,0,0,0,0,0,0,0,0,0,0,0,0,0,0,0,0,0,0,0,0,0,0,0,0,0,0,0,0,0,0,0,0,0,0,0,0,0,0,0,0,0,0,0,0,0,0,0,0,0,0,0,0,0,0],